longitude,latitude,mag,tc_years,mc_window,weight
-70.0,-20.0,6.8,49.99863107460644,6.8,1.2619492392475657
-70.0,-27.0,6.8,49.99863107460644,6.8,1.2619492392475657
-70.75,-34.17,6.8,49.99863107460644,6.8,1.2619492392475657
-68.5,-18.5,7.5,49.99863107460644,6.8,1.2619492392475657
-69.642,-22.762,6.8,49.99863107460644,6.8,1.2619492392475657
-68.77,-19.87,7.2,49.99863107460644,6.8,1.2619492392475657
-68.051,-22.556,6.8,49.99863107460644,6.8,1.2619492392475657
-69.396,-32.526,7.2,49.99863107460644,6.8,1.2619492392475657
-69.0,-23.0,7.5,49.99863107460644,6.8,1.2619492392475657
-66.428,-23.647,7.0,49.99863107460644,6.8,1.2619492392475657
-68.6,-22.0,6.9,49.99863107460644,6.8,1.2619492392475657
-72.5,-40.0,7.0,49.99863107460644,6.8,1.2619492392475657
-72.213,-36.296,8.0,49.99863107460644,6.8,1.2619492392475657
-70.4,-17.8,6.8,49.99863107460644,6.8,1.2619492392475657
-66.588,-23.121,7.2,49.99863107460644,6.8,1.2619492392475657
-70.238,-33.037,6.8,49.99863107460644,6.8,1.2619492392475657
-68.967,-19.671,7.2,49.99863107460644,6.8,1.2619492392475657
-68.856,-20.733,6.9,49.99863107460644,6.8,1.2619492392475657
-70.418,-33.757,7.0,49.99863107460644,6.8,1.2619492392475657
-72.713,-37.634,7.0,49.99863107460644,6.8,1.2619492392475657
-68.408,-20.581,7.0,49.99863107460644,6.8,1.2619492392475657
-68.7,-22.1,6.2,25.99863107460644,6.0,0.3846356360572872
-67.912,-23.977,8.0,25.99863107460644,6.0,0.3846356360572872
-71.0,-29.5,6.2,25.99863107460644,6.0,0.3846356360572872
-66.4,-23.3,6.8,25.99863107460644,6.0,0.3846356360572872
-69.86,-21.462,6.1,25.99863107460644,6.0,0.3846356360572872
-71.5,-17.0,6.2,25.99863107460644,6.0,0.3846356360572872
-70.5,-18.8,6.5,25.99863107460644,6.0,0.3846356360572872
-68.0,-21.75,6.1,25.99863107460644,6.0,0.3846356360572872
-65.814,-22.216,7.2,25.99863107460644,6.0,0.3846356360572872
-71.0,-17.4,6.0,25.99863107460644,6.0,0.3846356360572872
-66.515,-19.61,6.4,25.99863107460644,6.0,0.3846356360572872
-68.692,-22.429,7.4,25.99863107460644,6.0,0.3846356360572872
-67.5,-23.0,6.2,25.99863107460644,6.0,0.3846356360572872
-68.229,-23.194,6.6,25.99863107460644,6.0,0.3846356360572872
-72.955,-41.233,6.3,25.99863107460644,6.0,0.3846356360572872
-66.184,-22.869,6.6,25.99863107460644,6.0,0.3846356360572872
-65.186,-30.737,6.9,25.99863107460644,6.0,0.3846356360572872
-70.34,-37.612,6.5,25.99863107460644,6.0,0.3846356360572872
-70.22,-34.664,6.8,25.99863107460644,6.0,0.3846356360572872
-69.0,-19.0,6.2,25.99863107460644,6.0,0.3846356360572872
-69.0,-20.0,6.8,25.99863107460644,6.0,0.3846356360572872
-70.036,-25.552,6.8,25.99863107460644,6.0,0.3846356360572872
-67.15,-28.12,6.1,25.99863107460644,6.0,0.3846356360572872
-66.713,-20.948,7.7,25.99863107460644,6.0,0.3846356360572872
-68.415,-21.269,6.0,25.99863107460644,6.0,0.3846356360572872
-66.894,-24.248,6.4,25.99863107460644,6.0,0.3846356360572872
-65.32,-30.82,6.1,25.99863107460644,6.0,0.3846356360572872
-69.574,-21.214,6.0,25.99863107460644,6.0,0.3846356360572872
-71.094,-30.728,6.4,25.99863107460644,6.0,0.3846356360572872
-68.862,-20.407,7.1,25.99863107460644,6.0,0.3846356360572872
-68.832,-25.464,6.6,25.99863107460644,6.0,0.3846356360572872
-69.397,-17.69,6.2,25.99863107460644,6.0,0.3846356360572872
-65.0,-18.5,6.0,25.99863107460644,6.0,0.3846356360572872
-73.0,-39.5,6.9,25.99863107460644,6.0,0.3846356360572872
-65.614,-21.098,6.2,25.99863107460644,6.0,0.3846356360572872
-73.5,-43.5,6.0,25.99863107460644,6.0,0.3846356360572872
-68.5,-28.5,6.1,25.99863107460644,6.0,0.3846356360572872
-68.704,-22.989,6.8,25.99863107460644,6.0,0.3846356360572872
-69.694,-21.404,6.1,25.99863107460644,6.0,0.3846356360572872
-68.0,-22.1,6.1,25.99863107460644,6.0,0.3846356360572872
-68.4,-21.3,6.3,25.99863107460644,6.0,0.3846356360572872
-70.531,-37.066,6.2,25.99863107460644,6.0,0.3846356360572872
-67.914,-23.167,6.8,25.99863107460644,6.0,0.3846356360572872
-70.1,-34.9,6.3,25.99863107460644,6.0,0.3846356360572872
-69.1,-23.7,6.9,25.99863107460644,6.0,0.3846356360572872
-69.4,-17.7,6.4,25.99863107460644,6.0,0.3846356360572872
-69.1,-31.7,6.0,25.99863107460644,6.0,0.3846356360572872
-68.82,-18.954,6.7,25.99863107460644,6.0,0.3846356360572872
-71.049,-31.452,6.1,25.99863107460644,6.0,0.3846356360572872
-68.301,-31.973,6.1,25.99863107460644,6.0,0.3846356360572872
-68.821,-20.304,6.1,25.99863107460644,6.0,0.3846356360572872
-68.311,-21.362,6.7,25.99863107460644,6.0,0.3846356360572872
-69.397,-29.701,6.0,25.99863107460644,6.0,0.3846356360572872
-68.413,-24.418,6.6,25.99863107460644,6.0,0.3846356360572872
-71.146,-30.838,6.5,25.99863107460644,6.0,0.3846356360572872
-66.75,-23.47,6.9,25.99863107460644,6.0,0.3846356360572872
-71.793,-42.229,6.0,25.99863107460644,6.0,0.3846356360572872
-68.778,-28.393,6.0,25.99863107460644,6.0,0.3846356360572872
-68.938,-25.375,6.8,25.99863107460644,6.0,0.3846356360572872
-71.076,-32.601,7.5,25.99863107460644,6.0,0.3846356360572872
-66.195,-22.655,6.5,25.99863107460644,6.0,0.3846356360572872
-68.198,-22.497,7.0,25.99863107460644,6.0,0.3846356360572872
-69.271,-19.795,6.1,25.99863107460644,6.0,0.3846356360572872
-66.57,-27.96,6.2,25.99863107460644,6.0,0.3846356360572872
-66.85,-22.95,6.5,25.99863107460644,6.0,0.3846356360572872
-69.162,-19.236,6.1,25.99863107460644,6.0,0.3846356360572872
-69.436,-18.079,5.6,10.001368925393566,5.3,0.1994989215829135
-68.244,-21.774,5.8,10.001368925393566,5.3,0.1994989215829135
-67.286,-27.52,5.4,10.001368925393566,5.3,0.1994989215829135
-67.6,-31.763,5.7,10.001368925393566,5.3,0.1994989215829135
-68.893,-25.929,5.7,10.001368925393566,5.3,0.1994989215829135
-70.399,-28.628,5.5,10.001368925393566,5.3,0.1994989215829135
-71.489,-36.132,5.4,10.001368925393566,5.3,0.1994989215829135
-68.692,-23.156,5.6,10.001368925393566,5.3,0.1994989215829135
-68.506,-31.56,5.4,10.001368925393566,5.3,0.1994989215829135
-69.122,-23.932,5.3,10.001368925393566,5.3,0.1994989215829135
-69.839,-20.366,5.7,10.001368925393566,5.3,0.1994989215829135
-67.22,-18.927,5.3,10.001368925393566,5.3,0.1994989215829135
-67.1,-28.886,5.5,10.001368925393566,5.3,0.1994989215829135
-68.201,-23.274,5.3,10.001368925393566,5.3,0.1994989215829135
-66.766,-24.12,6.0,10.001368925393566,5.3,0.1994989215829135
-67.295,-24.325,5.3,10.001368925393566,5.3,0.1994989215829135
-69.201,-17.288,5.4,10.001368925393566,5.3,0.1994989215829135
-67.908,-24.0,5.7,10.001368925393566,5.3,0.1994989215829135
-65.977,-22.386,5.5,10.001368925393566,5.3,0.1994989215829135
-67.166,-21.504,5.5,10.001368925393566,5.3,0.1994989215829135
-68.663,-29.626,5.6,10.001368925393566,5.3,0.1994989215829135
-68.51,-20.54,7.2,10.001368925393566,5.3,0.1994989215829135
-68.664,-22.577,5.4,10.001368925393566,5.3,0.1994989215829135
-68.592,-21.295,5.8,10.001368925393566,5.3,0.1994989215829135
-68.61,-24.89,6.9,10.001368925393566,5.3,0.1994989215829135
-70.182,-30.1,5.3,10.001368925393566,5.3,0.1994989215829135
-67.153,-28.01,5.5,10.001368925393566,5.3,0.1994989215829135
-69.27,-23.01,5.4,10.001368925393566,5.3,0.1994989215829135
-69.804,-18.868,5.3,10.001368925393566,5.3,0.1994989215829135
-67.745,-29.827,5.6,10.001368925393566,5.3,0.1994989215829135
-67.12,-22.21,5.6,10.001368925393566,5.3,0.1994989215829135
-69.56,-19.64,5.7,10.001368925393566,5.3,0.1994989215829135
-69.553,-29.1,5.3,10.001368925393566,5.3,0.1994989215829135
-67.383,-24.612,5.3,10.001368925393566,5.3,0.1994989215829135
-68.138,-22.003,5.5,10.001368925393566,5.3,0.1994989215829135
-69.173,-31.892,5.8,10.001368925393566,5.3,0.1994989215829135
-68.51,-23.57,5.6,10.001368925393566,5.3,0.1994989215829135
-67.158,-32.022,5.5,10.001368925393566,5.3,0.1994989215829135
-70.028,-33.189,5.3,10.001368925393566,5.3,0.1994989215829135
-69.633,-25.721,5.3,10.001368925393566,5.3,0.1994989215829135
-69.959,-31.445,5.3,10.001368925393566,5.3,0.1994989215829135
-68.594,-22.589,5.6,10.001368925393566,5.3,0.1994989215829135
-67.493,-20.948,5.5,10.001368925393566,5.3,0.1994989215829135
-69.536,-18.168,5.7,10.001368925393566,5.3,0.1994989215829135
-67.386,-28.573,5.8,10.001368925393566,5.3,0.1994989215829135
-71.61,-37.96,5.5,10.001368925393566,5.3,0.1994989215829135
-71.816,-17.095,5.5,10.001368925393566,5.3,0.1994989215829135
-70.19,-34.278,6.1,10.001368925393566,5.3,0.1994989215829135
-66.704,-27.815,5.7,10.001368925393566,5.3,0.1994989215829135
-70.297,-27.895,5.3,10.001368925393566,5.3,0.1994989215829135
-69.491,-17.716,5.7,10.001368925393566,5.3,0.1994989215829135
-66.708,-21.485,5.3,10.001368925393566,5.3,0.1994989215829135
-69.084,-28.684,5.4,10.001368925393566,5.3,0.1994989215829135
-67.739,-24.197,5.5,10.001368925393566,5.3,0.1994989215829135
-69.288,-20.491,5.5,10.001368925393566,5.3,0.1994989215829135
-70.145,-18.651,5.5,10.001368925393566,5.3,0.1994989215829135
-68.05,-23.7,5.6,10.001368925393566,5.3,0.1994989215829135
-71.034,-33.712,5.6,10.001368925393566,5.3,0.1994989215829135
-69.184,-21.282,5.6,10.001368925393566,5.3,0.1994989215829135
-70.154,-25.675,5.3,10.001368925393566,5.3,0.1994989215829135
-66.03,-21.86,5.8,10.001368925393566,5.3,0.1994989215829135
-68.301,-31.414,5.4,10.001368925393566,5.3,0.1994989215829135
-69.661,-29.863,5.5,10.001368925393566,5.3,0.1994989215829135
-66.496,-20.759,5.7,10.001368925393566,5.3,0.1994989215829135
-69.815,-20.024,5.8,10.001368925393566,5.3,0.1994989215829135
-67.95,-24.17,5.3,10.001368925393566,5.3,0.1994989215829135
-67.325,-31.574,5.3,10.001368925393566,5.3,0.1994989215829135
-68.482,-22.04,5.7,10.001368925393566,5.3,0.1994989215829135
-67.343,-28.775,5.4,10.001368925393566,5.3,0.1994989215829135
-66.869,-19.833,5.3,10.001368925393566,5.3,0.1994989215829135
-69.32,-23.05,6.3,10.001368925393566,5.3,0.1994989215829135
-71.943,-36.428,5.5,10.001368925393566,5.3,0.1994989215829135
-68.904,-23.705,5.3,10.001368925393566,5.3,0.1994989215829135
-68.56,-29.58,5.6,10.001368925393566,5.3,0.1994989215829135
-66.917,-27.826,5.6,10.001368925393566,5.3,0.1994989215829135
-67.308,-22.068,5.5,10.001368925393566,5.3,0.1994989215829135
-66.5,-21.32,5.3,10.001368925393566,5.3,0.1994989215829135
-69.208,-17.921,5.6,10.001368925393566,5.3,0.1994989215829135
-66.84,-24.27,6.4,10.001368925393566,5.3,0.1994989215829135
-70.577,-28.847,5.7,10.001368925393566,5.3,0.1994989215829135
-71.5,-35.9,5.6,10.001368925393566,5.3,0.1994989215829135
-70.526,-32.602,5.6,10.001368925393566,5.3,0.1994989215829135
-68.803,-23.667,5.3,10.001368925393566,5.3,0.1994989215829135
-68.564,-25.078,5.3,10.001368925393566,5.3,0.1994989215829135
-69.865,-24.415,5.6,10.001368925393566,5.3,0.1994989215829135
-69.17,-19.43,6.6,10.001368925393566,5.3,0.1994989215829135
-68.87,-21.83,5.6,10.001368925393566,5.3,0.1994989215829135
-70.763,-29.415,5.6,10.001368925393566,5.3,0.1994989215829135
-69.453,-20.689,5.4,10.001368925393566,5.3,0.1994989215829135
-70.49,-33.47,5.7,10.001368925393566,5.3,0.1994989215829135
-69.675,-28.997,6.5,10.001368925393566,5.3,0.1994989215829135
-69.991,-35.251,5.7,10.001368925393566,5.3,0.1994989215829135
-69.41,-24.302,5.3,10.001368925393566,5.3,0.1994989215829135
-69.882,-17.407,5.3,10.001368925393566,5.3,0.1994989215829135
-67.654,-24.341,5.8,10.001368925393566,5.3,0.1994989215829135
-68.601,-22.534,5.5,10.001368925393566,5.3,0.1994989215829135
-70.743,-34.857,5.5,10.001368925393566,5.3,0.1994989215829135
-68.764,-23.862,5.4,10.001368925393566,5.3,0.1994989215829135
-68.46,-21.26,6.3,10.001368925393566,5.3,0.1994989215829135
-68.032,-23.028,5.8,10.001368925393566,5.3,0.1994989215829135
-71.786,-35.534,5.6,10.001368925393566,5.3,0.1994989215829135
-65.12,-20.24,5.5,10.001368925393566,5.3,0.1994989215829135
-73.204,-41.574,5.9,10.001368925393566,5.3,0.1994989215829135
-69.147,-20.652,5.4,10.001368925393566,5.3,0.1994989215829135
-70.09,-34.118,5.3,10.001368925393566,5.3,0.1994989215829135
-66.59,-23.13,5.5,10.001368925393566,5.3,0.1994989215829135
-65.312,-24.036,5.5,10.001368925393566,5.3,0.1994989215829135
-69.72,-25.97,5.4,10.001368925393566,5.3,0.1994989215829135
-70.24,-17.43,5.5,10.001368925393566,5.3,0.1994989215829135
-68.828,-22.357,5.5,10.001368925393566,5.3,0.1994989215829135
-71.361,-36.284,5.6,10.001368925393566,5.3,0.1994989215829135
-67.033,-21.76,5.4,10.001368925393566,5.3,0.1994989215829135
-66.09,-22.76,6.7,10.001368925393566,5.3,0.1994989215829135
-67.296,-31.808,5.4,10.001368925393566,5.3,0.1994989215829135
-69.002,-23.065,5.4,10.001368925393566,5.3,0.1994989215829135
-69.38,-23.47,5.5,10.001368925393566,5.3,0.1994989215829135
-68.36,-19.41,5.4,10.001368925393566,5.3,0.1994989215829135
-67.45,-21.37,5.3,10.001368925393566,5.3,0.1994989215829135
-66.738,-23.949,5.6,10.001368925393566,5.3,0.1994989215829135
-67.17,-24.22,5.3,10.001368925393566,5.3,0.1994989215829135
-70.245,-19.318,5.5,10.001368925393566,5.3,0.1994989215829135
-65.74,-31.21,6.0,10.001368925393566,5.3,0.1994989215829135
-70.818,-29.589,5.3,10.001368925393566,5.3,0.1994989215829135
-66.665,-21.445,5.3,10.001368925393566,5.3,0.1994989215829135
-68.097,-21.295,5.7,10.001368925393566,5.3,0.1994989215829135
-68.554,-20.71,5.5,10.001368925393566,5.3,0.1994989215829135
-69.45,-17.03,6.3,10.001368925393566,5.3,0.1994989215829135
-69.16,-21.95,5.9,10.001368925393566,5.3,0.1994989215829135
-67.197,-18.975,5.5,10.001368925393566,5.3,0.1994989215829135
-69.06,-23.09,5.3,10.001368925393566,5.3,0.1994989215829135
-69.281,-21.132,5.7,10.001368925393566,5.3,0.1994989215829135
-66.71,-23.02,5.5,10.001368925393566,5.3,0.1994989215829135
-69.47,-18.61,6.7,10.001368925393566,5.3,0.1994989215829135
-67.686,-23.956,5.4,10.001368925393566,5.3,0.1994989215829135
-68.711,-21.389,5.5,10.001368925393566,5.3,0.1994989215829135
-68.791,-19.872,5.4,10.001368925393566,5.3,0.1994989215829135
-69.958,-20.148,5.6,10.001368925393566,5.3,0.1994989215829135
-71.355,-17.566,5.3,10.001368925393566,5.3,0.1994989215829135
-69.284,-24.264,5.7,10.001368925393566,5.3,0.1994989215829135
-71.141,-30.667,5.5,10.001368925393566,5.3,0.1994989215829135
-69.93,-17.43,5.9,10.001368925393566,5.3,0.1994989215829135
-71.148,-35.11,5.3,10.001368925393566,5.3,0.1994989215829135
-68.416,-22.77,5.3,10.001368925393566,5.3,0.1994989215829135
-68.61,-30.69,5.4,10.001368925393566,5.3,0.1994989215829135
-68.9,-31.381,5.5,10.001368925393566,5.3,0.1994989215829135
-69.426,-31.776,5.7,10.001368925393566,5.3,0.1994989215829135
-70.56,-33.09,6.0,10.001368925393566,5.3,0.1994989215829135
-69.401,-19.221,5.4,10.001368925393566,5.3,0.1994989215829135
-70.1,-25.93,5.3,10.001368925393566,5.3,0.1994989215829135
-69.18,-23.55,5.4,10.001368925393566,5.3,0.1994989215829135
-70.65,-17.31,6.1,10.001368925393566,5.3,0.1994989215829135
-66.749,-21.576,5.3,10.001368925393566,5.3,0.1994989215829135
-70.823,-17.882,5.5,10.001368925393566,5.3,0.1994989215829135
-69.319,-17.688,5.3,10.001368925393566,5.3,0.1994989215829135
-70.19,-34.34,5.3,10.001368925393566,5.3,0.1994989215829135
-67.26,-27.288,5.5,10.001368925393566,5.3,0.1994989215829135
-66.71,-27.07,5.5,10.001368925393566,5.3,0.1994989215829135
-69.231,-28.147,5.3,10.001368925393566,5.3,0.1994989215829135
-70.833,-35.599,5.4,10.001368925393566,5.3,0.1994989215829135
-67.04,-23.76,5.6,10.001368925393566,5.3,0.1994989215829135
-69.67,-24.22,5.6,10.001368925393566,5.3,0.1994989215829135
-68.703,-21.794,5.4,10.001368925393566,5.3,0.1994989215829135
-65.408,-30.858,5.6,10.001368925393566,5.3,0.1994989215829135
-66.94,-24.27,6.2,10.001368925393566,5.3,0.1994989215829135
-69.532,-29.424,5.5,10.001368925393566,5.3,0.1994989215829135
-70.527,-33.607,5.5,10.001368925393566,5.3,0.1994989215829135
-68.567,-20.46,5.6,10.001368925393566,5.3,0.1994989215829135
-69.023,-21.442,5.7,10.001368925393566,5.3,0.1994989215829135
-68.5,-31.54,5.3,10.001368925393566,5.3,0.1994989215829135
-68.132,-23.36,5.5,10.001368925393566,5.3,0.1994989215829135
-71.28,-35.42,5.4,10.001368925393566,5.3,0.1994989215829135
-68.381,-21.353,5.3,10.001368925393566,5.3,0.1994989215829135
-68.96,-22.56,6.4,10.001368925393566,5.3,0.1994989215829135
-68.208,-22.376,5.3,10.001368925393566,5.3,0.1994989215829135
-67.029,-23.012,5.5,10.001368925393566,5.3,0.1994989215829135
-69.175,-19.583,5.5,10.001368925393566,5.3,0.1994989215829135
-67.96,-21.144,5.5,10.001368925393566,5.3,0.1994989215829135
-70.022,-19.282,5.5,10.001368925393566,5.3,0.1994989215829135
-70.891,-29.416,6.3,10.001368925393566,5.3,0.1994989215829135
-69.105,-31.516,5.6,10.001368925393566,5.3,0.1994989215829135
-70.038,-19.934,5.3,10.001368925393566,5.3,0.1994989215829135
-68.01,-23.88,5.6,10.001368925393566,5.3,0.1994989215829135
-71.249,-33.842,6.3,10.001368925393566,5.3,0.1994989215829135
-67.247,-20.75,5.3,10.001368925393566,5.3,0.1994989215829135
-66.849,-22.466,5.4,10.001368925393566,5.3,0.1994989215829135
-69.104,-24.335,5.3,10.001368925393566,5.3,0.1994989215829135
-66.589,-21.061,5.3,10.001368925393566,5.3,0.1994989215829135
-68.683,-19.599,5.3,10.001368925393566,5.3,0.1994989215829135
-66.64,-27.88,6.3,10.001368925393566,5.3,0.1994989215829135
-69.627,-17.601,5.8,10.001368925393566,5.3,0.1994989215829135
-72.339,-36.536,5.4,10.001368925393566,5.3,0.1994989215829135
-66.97,-23.64,5.7,10.001368925393566,5.3,0.1994989215829135
-69.396,-27.902,5.4,10.001368925393566,5.3,0.1994989215829135
-67.092,-31.555,5.4,10.001368925393566,5.3,0.1994989215829135
-69.81,-22.263,5.3,10.001368925393566,5.3,0.1994989215829135
-67.919,-24.952,5.4,10.001368925393566,5.3,0.1994989215829135
-67.185,-27.501,5.5,10.001368925393566,5.3,0.1994989215829135
-69.011,-23.927,5.3,10.001368925393566,5.3,0.1994989215829135
-69.345,-23.456,5.4,10.001368925393566,5.3,0.1994989215829135
-69.57,-32.377,5.6,10.001368925393566,5.3,0.1994989215829135
-67.7,-21.447,5.6,10.001368925393566,5.3,0.1994989215829135
-70.792,-32.183,5.4,11.000684462696784,5.2,0.144072234580991
-71.38,-35.83,5.2,11.000684462696784,5.2,0.144072234580991
-66.748,-21.534,5.2,11.000684462696784,5.2,0.144072234580991
-69.252,-31.36,5.2,11.000684462696784,5.2,0.144072234580991
-68.721,-20.811,5.3,11.000684462696784,5.2,0.144072234580991
-71.11,-36.24,5.2,11.000684462696784,5.2,0.144072234580991
-67.574,-28.746,5.3,11.000684462696784,5.2,0.144072234580991
-67.191,-21.321,5.3,11.000684462696784,5.2,0.144072234580991
-68.768,-31.319,5.2,11.000684462696784,5.2,0.144072234580991
-71.052,-17.571,5.3,11.000684462696784,5.2,0.144072234580991
-67.35,-18.91,6.3,11.000684462696784,5.2,0.144072234580991
-69.519,-19.792,5.3,11.000684462696784,5.2,0.144072234580991
-66.36,-22.31,5.3,11.000684462696784,5.2,0.144072234580991
-69.93,-18.31,5.6,11.000684462696784,5.2,0.144072234580991
-69.089,-28.416,5.5,11.000684462696784,5.2,0.144072234580991
-68.6,-21.767,5.2,11.000684462696784,5.2,0.144072234580991
-70.902,-34.418,5.5,11.000684462696784,5.2,0.144072234580991
-69.219,-21.458,5.4,11.000684462696784,5.2,0.144072234580991
-71.169,-31.762,5.5,11.000684462696784,5.2,0.144072234580991
-72.53,-37.05,5.3,11.000684462696784,5.2,0.144072234580991
-68.516,-23.396,5.6,11.000684462696784,5.2,0.144072234580991
-69.998,-32.458,5.2,11.000684462696784,5.2,0.144072234580991
-70.15,-25.41,5.5,11.000684462696784,5.2,0.144072234580991
-68.24,-21.406,5.3,11.000684462696784,5.2,0.144072234580991
-70.303,-32.045,5.5,11.000684462696784,5.2,0.144072234580991
-69.381,-23.25,5.6,11.000684462696784,5.2,0.144072234580991
-67.473,-22.685,5.4,11.000684462696784,5.2,0.144072234580991
-66.676,-23.971,5.5,11.000684462696784,5.2,0.144072234580991
-67.342,-32.689,5.6,11.000684462696784,5.2,0.144072234580991
-67.431,-20.791,5.2,11.000684462696784,5.2,0.144072234580991
-68.518,-20.819,5.3,11.000684462696784,5.2,0.144072234580991
-66.493,-21.403,5.2,11.000684462696784,5.2,0.144072234580991
-71.07,-29.81,5.4,11.000684462696784,5.2,0.144072234580991
-68.667,-24.44,5.7,11.000684462696784,5.2,0.144072234580991
-68.339,-22.046,5.5,11.000684462696784,5.2,0.144072234580991
-66.31,-28.73,5.3,11.000684462696784,5.2,0.144072234580991
-68.772,-19.839,5.3,11.000684462696784,5.2,0.144072234580991
-67.881,-31.88,5.4,11.000684462696784,5.2,0.144072234580991
-66.922,-22.522,5.3,11.000684462696784,5.2,0.144072234580991
-66.19,-22.92,6.9,11.000684462696784,5.2,0.144072234580991
-67.379,-21.372,5.2,11.000684462696784,5.2,0.144072234580991
-65.748,-20.632,5.2,11.000684462696784,5.2,0.144072234580991
-72.135,-17.096,5.8,11.000684462696784,5.2,0.144072234580991
-65.19,-30.95,5.4,11.000684462696784,5.2,0.144072234580991
-69.464,-19.957,5.7,11.000684462696784,5.2,0.144072234580991
-69.633,-29.49,5.4,11.000684462696784,5.2,0.144072234580991
-68.94,-21.29,5.7,11.000684462696784,5.2,0.144072234580991
-70.64,-17.25,5.2,11.000684462696784,5.2,0.144072234580991
-66.96,-28.33,5.4,11.000684462696784,5.2,0.144072234580991
-70.02,-18.96,7.0,11.000684462696784,5.2,0.144072234580991
-67.635,-22.332,5.2,11.000684462696784,5.2,0.144072234580991
-68.85,-22.11,5.5,11.000684462696784,5.2,0.144072234580991
-71.02,-31.67,5.2,11.000684462696784,5.2,0.144072234580991
-69.25,-24.36,5.6,11.000684462696784,5.2,0.144072234580991
-68.148,-27.396,5.3,11.000684462696784,5.2,0.144072234580991
-69.48,-18.17,5.9,11.000684462696784,5.2,0.144072234580991
-68.06,-22.88,5.6,11.000684462696784,5.2,0.144072234580991
-69.29,-21.663,5.3,11.000684462696784,5.2,0.144072234580991
-68.871,-20.381,5.5,11.000684462696784,5.2,0.144072234580991
-72.773,-38.388,5.3,11.000684462696784,5.2,0.144072234580991
-68.829,-22.636,5.4,11.000684462696784,5.2,0.144072234580991
-70.19,-25.99,5.3,11.000684462696784,5.2,0.144072234580991
-71.01,-34.74,5.4,11.000684462696784,5.2,0.144072234580991
-68.973,-23.162,5.3,11.000684462696784,5.2,0.144072234580991
-69.89,-23.9,5.3,11.000684462696784,5.2,0.144072234580991
-68.87,-19.77,5.3,11.000684462696784,5.2,0.144072234580991
-67.02,-18.03,6.5,11.000684462696784,5.2,0.144072234580991
-71.198,-39.957,5.2,11.000684462696784,5.2,0.144072234580991
-68.333,-22.326,5.5,11.000684462696784,5.2,0.144072234580991
-66.544,-21.343,5.2,11.000684462696784,5.2,0.144072234580991
-70.122,-17.076,5.8,11.000684462696784,5.2,0.144072234580991
-69.57,-20.53,6.6,11.000684462696784,5.2,0.144072234580991
-70.09,-17.99,5.5,11.000684462696784,5.2,0.144072234580991
-68.899,-29.252,5.4,11.000684462696784,5.2,0.144072234580991
-69.333,-19.454,5.6,11.000684462696784,5.2,0.144072234580991
-68.357,-21.905,5.5,11.000684462696784,5.2,0.144072234580991
-67.354,-27.539,5.4,11.000684462696784,5.2,0.144072234580991
-69.62,-17.51,5.6,11.000684462696784,5.2,0.144072234580991
-67.053,-24.264,5.5,11.000684462696784,5.2,0.144072234580991
-69.061,-31.515,6.2,11.000684462696784,5.2,0.144072234580991
-68.804,-30.239,5.2,11.000684462696784,5.2,0.144072234580991
-67.181,-31.965,5.2,11.000684462696784,5.2,0.144072234580991
-67.442,-21.845,5.4,11.000684462696784,5.2,0.144072234580991
-67.15,-23.82,5.4,11.000684462696784,5.2,0.144072234580991
-69.361,-32.372,5.3,11.000684462696784,5.2,0.144072234580991
-65.61,-22.01,6.1,11.000684462696784,5.2,0.144072234580991
-67.461,-28.822,5.2,11.000684462696784,5.2,0.144072234580991
-72.395,-36.467,5.4,11.000684462696784,5.2,0.144072234580991
-70.818,-31.117,5.4,11.000684462696784,5.2,0.144072234580991
-68.784,-21.553,5.2,11.000684462696784,5.2,0.144072234580991
-68.24,-23.5,5.9,11.000684462696784,5.2,0.144072234580991
-66.651,-27.879,5.3,11.000684462696784,5.2,0.144072234580991
-67.69,-23.21,5.4,11.000684462696784,5.2,0.144072234580991
-69.405,-24.023,5.7,11.000684462696784,5.2,0.144072234580991
-70.169,-25.503,5.6,11.000684462696784,5.2,0.144072234580991
-70.441,-28.433,5.3,11.000684462696784,5.2,0.144072234580991
-68.5,-20.36,5.3,11.000684462696784,5.2,0.144072234580991
-69.887,-24.02,5.3,11.000684462696784,5.2,0.144072234580991
-69.244,-25.395,5.3,11.000684462696784,5.2,0.144072234580991
-68.917,-19.648,5.4,11.000684462696784,5.2,0.144072234580991
-66.7,-23.43,6.1,11.000684462696784,5.2,0.144072234580991
-68.642,-19.971,5.2,11.000684462696784,5.2,0.144072234580991
-68.34,-29.112,5.6,11.000684462696784,5.2,0.144072234580991
-70.701,-29.456,5.4,11.000684462696784,5.2,0.144072234580991
-68.424,-21.089,5.3,11.000684462696784,5.2,0.144072234580991
-67.326,-28.858,5.3,11.000684462696784,5.2,0.144072234580991
-70.19,-32.86,5.3,11.000684462696784,5.2,0.144072234580991
-69.09,-21.13,6.2,11.000684462696784,5.2,0.144072234580991
-67.13,-19.072,5.2,11.000684462696784,5.2,0.144072234580991
-67.182,-24.008,5.2,11.000684462696784,5.2,0.144072234580991
-67.466,-26.521,5.5,11.000684462696784,5.2,0.144072234580991
-69.19,-23.282,5.7,11.000684462696784,5.2,0.144072234580991
-67.937,-18.365,5.2,11.000684462696784,5.2,0.144072234580991
-70.07,-24.86,5.4,11.000684462696784,5.2,0.144072234580991
-67.6,-22.05,5.7,11.000684462696784,5.2,0.144072234580991
-70.891,-31.684,5.4,11.000684462696784,5.2,0.144072234580991
-67.486,-27.641,5.2,11.000684462696784,5.2,0.144072234580991
-70.453,-17.616,5.3,11.000684462696784,5.2,0.144072234580991
-71.678,-41.85,5.8,11.000684462696784,5.2,0.144072234580991
-70.134,-28.012,5.4,11.000684462696784,5.2,0.144072234580991
-66.65,-24.21,5.4,11.000684462696784,5.2,0.144072234580991
-65.441,-30.875,5.6,11.000684462696784,5.2,0.144072234580991
-66.39,-27.51,5.3,11.000684462696784,5.2,0.144072234580991
-67.8,-21.45,6.1,11.000684462696784,5.2,0.144072234580991
-69.0,-27.655,5.3,11.000684462696784,5.2,0.144072234580991
-70.553,-33.909,5.4,11.000684462696784,5.2,0.144072234580991
-66.002,-22.762,5.6,11.000684462696784,5.2,0.144072234580991
-67.171,-20.809,5.4,11.000684462696784,5.2,0.144072234580991
-68.423,-22.374,5.7,11.000684462696784,5.2,0.144072234580991
-68.86,-24.764,5.6,11.000684462696784,5.2,0.144072234580991
-68.72,-18.35,5.6,11.000684462696784,5.2,0.144072234580991
-70.079,-33.802,5.2,11.000684462696784,5.2,0.144072234580991
-68.368,-21.47,5.4,11.000684462696784,5.2,0.144072234580991
-71.34,-35.89,6.1,11.000684462696784,5.2,0.144072234580991
-69.71,-17.9,5.7,11.000684462696784,5.2,0.144072234580991
-71.526,-34.63,5.2,11.000684462696784,5.2,0.144072234580991
-69.409,-30.15,5.3,11.000684462696784,5.2,0.144072234580991
-68.49,-21.92,5.3,11.000684462696784,5.2,0.144072234580991
-69.3,-19.59,5.5,11.000684462696784,5.2,0.144072234580991
-68.83,-28.66,5.3,11.000684462696784,5.2,0.144072234580991
-70.013,-32.532,5.9,11.000684462696784,5.2,0.144072234580991
-69.305,-22.735,5.2,11.000684462696784,5.2,0.144072234580991
-68.726,-22.911,5.4,11.000684462696784,5.2,0.144072234580991
-69.308,-18.902,5.3,11.000684462696784,5.2,0.144072234580991
-69.33,-18.43,5.3,11.000684462696784,5.2,0.144072234580991
-69.715,-21.595,5.3,11.000684462696784,5.2,0.144072234580991
-68.66,-30.92,5.7,11.000684462696784,5.2,0.144072234580991
-66.74,-24.29,5.4,11.000684462696784,5.2,0.144072234580991
-66.602,-26.348,5.2,11.000684462696784,5.2,0.144072234580991
-68.287,-20.788,5.4,11.000684462696784,5.2,0.144072234580991
-66.6,-19.43,6.5,11.000684462696784,5.2,0.144072234580991
-67.402,-28.132,5.3,11.000684462696784,5.2,0.144072234580991
-69.272,-17.362,5.2,11.000684462696784,5.2,0.144072234580991
-66.543,-27.804,5.3,11.000684462696784,5.2,0.144072234580991
-67.626,-29.132,5.2,11.000684462696784,5.2,0.144072234580991
-69.305,-28.694,5.3,11.000684462696784,5.2,0.144072234580991
-70.664,-35.039,5.2,11.000684462696784,5.2,0.144072234580991
-68.638,-20.132,5.5,11.000684462696784,5.2,0.144072234580991
-69.71,-23.181,5.4,11.000684462696784,5.2,0.144072234580991
-67.639,-24.45,5.2,11.000684462696784,5.2,0.144072234580991
-70.155,-25.683,5.2,11.000684462696784,5.2,0.144072234580991
-71.037,-37.779,5.2,11.000684462696784,5.2,0.144072234580991
-69.995,-24.551,5.6,11.000684462696784,5.2,0.144072234580991
-68.576,-21.724,5.3,11.000684462696784,5.2,0.144072234580991
-68.61,-28.86,5.2,11.000684462696784,5.2,0.144072234580991
-69.076,-23.25,5.5,11.000684462696784,5.2,0.144072234580991
-69.1,-18.387,5.3,11.000684462696784,5.2,0.144072234580991
-70.591,-36.573,5.6,11.000684462696784,5.2,0.144072234580991
-68.34,-23.6,5.3,11.000684462696784,5.2,0.144072234580991
-69.273,-17.873,5.3,11.000684462696784,5.2,0.144072234580991
-68.93,-20.79,5.4,11.000684462696784,5.2,0.144072234580991
-68.67,-21.24,5.4,11.000684462696784,5.2,0.144072234580991
-68.311,-22.425,5.4,11.000684462696784,5.2,0.144072234580991
-69.96,-31.58,5.8,11.000684462696784,5.2,0.144072234580991
-67.53,-22.11,5.4,11.000684462696784,5.2,0.144072234580991
-66.039,-22.489,5.2,11.000684462696784,5.2,0.144072234580991
-69.55,-32.03,5.4,11.000684462696784,5.2,0.144072234580991
-70.37,-17.53,5.9,11.000684462696784,5.2,0.144072234580991
-69.586,-19.238,5.3,11.000684462696784,5.2,0.144072234580991
-68.07,-21.17,5.7,11.000684462696784,5.2,0.144072234580991
-67.459,-22.625,5.2,11.000684462696784,5.2,0.144072234580991
-69.56,-24.21,5.8,11.000684462696784,5.2,0.144072234580991
-69.621,-28.966,5.6,11.000684462696784,5.2,0.144072234580991
-68.92,-20.3,5.8,11.000684462696784,5.2,0.144072234580991
-69.313,-27.61,5.2,11.000684462696784,5.2,0.144072234580991
-69.456,-18.363,5.4,11.000684462696784,5.2,0.144072234580991
-68.763,-21.87,5.7,11.000684462696784,5.2,0.144072234580991
-67.318,-21.084,5.3,11.000684462696784,5.2,0.144072234580991
-71.089,-35.134,5.2,11.000684462696784,5.2,0.144072234580991
-68.193,-23.887,5.6,11.000684462696784,5.2,0.144072234580991
-68.044,-22.639,5.4,11.000684462696784,5.2,0.144072234580991
-69.796,-21.602,5.3,11.000684462696784,5.2,0.144072234580991
-71.222,-32.865,5.4,11.000684462696784,5.2,0.144072234580991
-69.042,-19.837,5.6,11.000684462696784,5.2,0.144072234580991
-65.11,-30.91,5.2,11.000684462696784,5.2,0.144072234580991
-68.631,-21.012,5.4,11.000684462696784,5.2,0.144072234580991
-68.95,-25.9,5.2,11.000684462696784,5.2,0.144072234580991
-69.278,-22.962,5.4,11.000684462696784,5.2,0.144072234580991
-71.205,-34.044,5.5,11.000684462696784,5.2,0.144072234580991
-69.182,-19.084,5.2,11.000684462696784,5.2,0.144072234580991
-67.556,-28.343,5.2,11.000684462696784,5.2,0.144072234580991
-70.534,-31.004,5.2,11.000684462696784,5.2,0.144072234580991
-68.228,-19.055,5.4,11.000684462696784,5.2,0.144072234580991
-66.19,-22.72,5.3,11.000684462696784,5.2,0.144072234580991
-68.468,-21.42,5.4,11.000684462696784,5.2,0.144072234580991
-67.15,-31.55,5.4,11.000684462696784,5.2,0.144072234580991
-69.537,-20.737,5.2,11.000684462696784,5.2,0.144072234580991
-68.45,-25.18,5.6,11.000684462696784,5.2,0.144072234580991
-71.546,-39.075,5.5,11.000684462696784,5.2,0.144072234580991
-67.28,-21.98,5.8,11.000684462696784,5.2,0.144072234580991
-69.44,-18.353,5.5,11.000684462696784,5.2,0.144072234580991
-66.88,-23.45,7.0,11.000684462696784,5.2,0.144072234580991
-69.399,-24.207,5.3,11.000684462696784,5.2,0.144072234580991
-69.13,-31.62,6.3,11.000684462696784,5.2,0.144072234580991
-68.693,-24.281,5.6,11.000684462696784,5.2,0.144072234580991
-69.903,-23.974,5.2,11.000684462696784,5.2,0.144072234580991
-68.162,-23.254,5.6,11.000684462696784,5.2,0.144072234580991
-68.89,-20.242,5.2,11.000684462696784,5.2,0.144072234580991
-65.862,-31.215,5.3,11.000684462696784,5.2,0.144072234580991
-66.92,-24.213,5.7,11.000684462696784,5.2,0.144072234580991
-69.973,-33.215,5.4,11.000684462696784,5.2,0.144072234580991
-69.006,-17.751,5.2,11.000684462696784,5.2,0.144072234580991
-66.747,-27.861,5.6,11.000684462696784,5.2,0.144072234580991
-65.69,-22.12,6.0,11.000684462696784,5.2,0.144072234580991
-68.894,-21.203,5.2,11.000684462696784,5.2,0.144072234580991
-68.16,-31.77,5.8,11.000684462696784,5.2,0.144072234580991
-68.74,-22.63,5.8,11.000684462696784,5.2,0.144072234580991
-69.048,-19.56,5.6,11.000684462696784,5.2,0.144072234580991
-68.359,-21.806,5.4,11.000684462696784,5.2,0.144072234580991
-68.747,-19.022,5.4,11.000684462696784,5.2,0.144072234580991
-68.391,-20.182,5.2,11.000684462696784,5.2,0.144072234580991
-66.94,-24.76,5.5,11.000684462696784,5.2,0.144072234580991
-69.371,-18.956,5.2,11.000684462696784,5.2,0.144072234580991
-67.0,-24.25,5.4,11.000684462696784,5.2,0.144072234580991
-70.623,-18.073,5.5,11.000684462696784,5.2,0.144072234580991
-66.704,-21.079,5.2,11.000684462696784,5.2,0.144072234580991
-70.8,-39.19,5.9,11.000684462696784,5.2,0.144072234580991
-68.166,-21.34,5.6,11.000684462696784,5.2,0.144072234580991
-70.206,-33.306,5.3,11.000684462696784,5.2,0.144072234580991
-67.468,-22.492,5.3,11.000684462696784,5.2,0.144072234580991
-69.66,-17.44,6.2,11.000684462696784,5.2,0.144072234580991
-68.43,-22.034,5.3,11.000684462696784,5.2,0.144072234580991
-70.968,-35.12,5.2,11.000684462696784,5.2,0.144072234580991
-68.849,-28.712,5.5,11.000684462696784,5.2,0.144072234580991
-68.797,-20.657,5.4,11.000684462696784,5.2,0.144072234580991
-67.88,-23.64,5.9,11.000684462696784,5.2,0.144072234580991
-68.411,-29.193,5.5,11.000684462696784,5.2,0.144072234580991
-68.512,-22.76,5.3,11.000684462696784,5.2,0.144072234580991
-67.367,-21.906,5.2,11.000684462696784,5.2,0.144072234580991
-66.864,-24.128,5.2,11.000684462696784,5.2,0.144072234580991
-69.9,-24.3,5.3,11.000684462696784,5.2,0.144072234580991
-69.22,-28.26,5.8,11.000684462696784,5.2,0.144072234580991
-69.48,-20.01,5.8,11.000684462696784,5.2,0.144072234580991
-68.79,-21.22,5.6,11.000684462696784,5.2,0.144072234580991
-67.1,-27.976,5.3,11.000684462696784,5.2,0.144072234580991
-67.553,-28.75,5.2,11.000684462696784,5.2,0.144072234580991
-69.045,-22.76,5.3,11.000684462696784,5.2,0.144072234580991
-68.376,-22.547,5.3,11.000684462696784,5.2,0.144072234580991
-69.211,-18.895,5.6,11.000684462696784,5.2,0.144072234580991
-68.944,-20.294,5.3,11.000684462696784,5.2,0.144072234580991
-66.88,-24.15,5.4,11.000684462696784,5.2,0.144072234580991
-69.08,-23.85,5.3,11.000684462696784,5.2,0.144072234580991
-71.25,-17.45,5.3,11.000684462696784,5.2,0.144072234580991
-71.37,-35.873,5.3,11.000684462696784,5.2,0.144072234580991
-68.951,-31.648,5.3,11.000684462696784,5.2,0.144072234580991
-67.538,-19.162,5.7,11.000684462696784,5.2,0.144072234580991
-67.22,-18.76,5.7,11.000684462696784,5.2,0.144072234580991
-68.406,-22.304,5.3,11.000684462696784,5.2,0.144072234580991
-70.041,-32.436,5.6,11.000684462696784,5.2,0.144072234580991
-70.28,-17.35,5.6,11.000684462696784,5.2,0.144072234580991
-68.918,-19.897,5.4,11.000684462696784,5.2,0.144072234580991
-68.296,-21.641,5.2,4.999315537303217,5.0,0.2000273822562979
-65.92,-22.04,7.1,4.999315537303217,5.0,0.2000273822562979
-70.357,-34.602,5.3,4.999315537303217,5.0,0.2000273822562979
-66.723,-21.509,5.0,4.999315537303217,5.0,0.2000273822562979
-68.31,-32.98,5.3,4.999315537303217,5.0,0.2000273822562979
-71.003,-31.426,5.1,4.999315537303217,5.0,0.2000273822562979
-68.987,-28.076,5.0,4.999315537303217,5.0,0.2000273822562979
-67.068,-24.236,5.3,4.999315537303217,5.0,0.2000273822562979
-70.62,-33.45,5.5,4.999315537303217,5.0,0.2000273822562979
-68.706,-31.201,5.0,4.999315537303217,5.0,0.2000273822562979
-69.54,-18.32,6.1,4.999315537303217,5.0,0.2000273822562979
-69.19,-18.899,5.2,4.999315537303217,5.0,0.2000273822562979
-66.701,-23.938,5.0,4.999315537303217,5.0,0.2000273822562979
-70.39,-33.85,5.6,4.999315537303217,5.0,0.2000273822562979
-67.641,-24.28,5.3,4.999315537303217,5.0,0.2000273822562979
-69.491,-27.672,5.1,4.999315537303217,5.0,0.2000273822562979
-67.066,-23.621,5.0,4.999315537303217,5.0,0.2000273822562979
-70.06,-27.06,5.5,4.999315537303217,5.0,0.2000273822562979
-68.817,-19.2,5.1,4.999315537303217,5.0,0.2000273822562979
-70.19,-33.15,5.4,4.999315537303217,5.0,0.2000273822562979
-68.53,-23.34,5.3,4.999315537303217,5.0,0.2000273822562979
-66.12,-22.82,6.1,4.999315537303217,5.0,0.2000273822562979
-68.81,-22.761,5.3,4.999315537303217,5.0,0.2000273822562979
-67.924,-23.013,5.1,4.999315537303217,5.0,0.2000273822562979
-68.436,-21.778,5.1,4.999315537303217,5.0,0.2000273822562979
-68.537,-23.991,5.0,4.999315537303217,5.0,0.2000273822562979
-66.362,-21.098,5.0,4.999315537303217,5.0,0.2000273822562979
-70.322,-29.529,5.1,4.999315537303217,5.0,0.2000273822562979
-69.003,-19.623,5.2,4.999315537303217,5.0,0.2000273822562979
-68.184,-21.139,5.3,4.999315537303217,5.0,0.2000273822562979
-68.845,-28.016,5.0,4.999315537303217,5.0,0.2000273822562979
-71.02,-31.779,5.0,4.999315537303217,5.0,0.2000273822562979
-69.086,-17.67,5.1,4.999315537303217,5.0,0.2000273822562979
-66.664,-27.885,5.4,4.999315537303217,5.0,0.2000273822562979
-68.31,-22.22,5.5,4.999315537303217,5.0,0.2000273822562979
-70.989,-30.848,5.4,4.999315537303217,5.0,0.2000273822562979
-70.302,-36.31,5.3,4.999315537303217,5.0,0.2000273822562979
-67.604,-22.218,5.0,4.999315537303217,5.0,0.2000273822562979
-68.902,-31.152,5.0,4.999315537303217,5.0,0.2000273822562979
-68.761,-24.316,5.0,4.999315537303217,5.0,0.2000273822562979
-67.191,-29.028,5.0,4.999315537303217,5.0,0.2000273822562979
-68.7,-20.14,5.7,4.999315537303217,5.0,0.2000273822562979
-69.453,-23.641,5.4,4.999315537303217,5.0,0.2000273822562979
-68.697,-20.705,5.0,4.999315537303217,5.0,0.2000273822562979
-69.521,-24.38,5.4,4.999315537303217,5.0,0.2000273822562979
-68.972,-22.361,5.0,4.999315537303217,5.0,0.2000273822562979
-69.535,-27.776,5.4,4.999315537303217,5.0,0.2000273822562979
-68.16,-31.82,5.2,4.999315537303217,5.0,0.2000273822562979
-68.161,-21.645,5.1,4.999315537303217,5.0,0.2000273822562979
-69.86,-17.42,5.3,4.999315537303217,5.0,0.2000273822562979
-70.696,-34.849,5.1,4.999315537303217,5.0,0.2000273822562979
-68.013,-23.007,5.0,4.999315537303217,5.0,0.2000273822562979
-67.754,-23.818,5.3,4.999315537303217,5.0,0.2000273822562979
-70.185,-19.118,5.0,4.999315537303217,5.0,0.2000273822562979
-67.77,-31.48,5.9,4.999315537303217,5.0,0.2000273822562979
-69.32,-32.84,5.1,4.999315537303217,5.0,0.2000273822562979
-67.06,-31.574,5.0,4.999315537303217,5.0,0.2000273822562979
-70.439,-28.049,5.0,4.999315537303217,5.0,0.2000273822562979
-69.155,-22.337,5.3,4.999315537303217,5.0,0.2000273822562979
-71.263,-40.005,5.0,4.999315537303217,5.0,0.2000273822562979
-70.46,-32.56,5.3,4.999315537303217,5.0,0.2000273822562979
-66.57,-21.74,5.3,4.999315537303217,5.0,0.2000273822562979
-68.239,-22.027,5.1,4.999315537303217,5.0,0.2000273822562979
-68.58,-21.4,5.3,4.999315537303217,5.0,0.2000273822562979
-69.21,-32.04,5.4,4.999315537303217,5.0,0.2000273822562979
-69.3,-17.62,5.3,4.999315537303217,5.0,0.2000273822562979
-68.94,-31.52,5.4,4.999315537303217,5.0,0.2000273822562979
-71.25,-38.28,5.9,4.999315537303217,5.0,0.2000273822562979
-68.005,-21.059,5.0,4.999315537303217,5.0,0.2000273822562979
-70.56,-34.78,5.2,4.999315537303217,5.0,0.2000273822562979
-68.72,-22.93,5.9,4.999315537303217,5.0,0.2000273822562979
-69.2,-20.27,5.8,4.999315537303217,5.0,0.2000273822562979
-67.263,-27.68,5.1,4.999315537303217,5.0,0.2000273822562979
-69.22,-19.64,5.1,4.999315537303217,5.0,0.2000273822562979
-70.716,-39.617,5.1,4.999315537303217,5.0,0.2000273822562979
-68.183,-23.373,5.0,4.999315537303217,5.0,0.2000273822562979
-70.57,-36.56,5.3,4.999315537303217,5.0,0.2000273822562979
-66.46,-27.9,5.8,4.999315537303217,5.0,0.2000273822562979
-68.761,-20.783,5.2,4.999315537303217,5.0,0.2000273822562979
-70.1,-33.08,5.5,4.999315537303217,5.0,0.2000273822562979
-69.906,-17.088,5.1,4.999315537303217,5.0,0.2000273822562979
-69.254,-17.409,5.3,4.999315537303217,5.0,0.2000273822562979
-66.645,-21.326,5.1,4.999315537303217,5.0,0.2000273822562979
-69.277,-23.903,5.0,4.999315537303217,5.0,0.2000273822562979
-68.232,-21.03,5.3,4.999315537303217,5.0,0.2000273822562979
-67.118,-24.382,5.0,4.999315537303217,5.0,0.2000273822562979
-68.315,-21.744,5.2,4.999315537303217,5.0,0.2000273822562979
-70.8,-17.25,5.1,4.999315537303217,5.0,0.2000273822562979
-67.37,-20.73,6.4,4.999315537303217,5.0,0.2000273822562979
-68.91,-21.18,5.1,4.999315537303217,5.0,0.2000273822562979
-72.317,-38.082,5.2,4.999315537303217,5.0,0.2000273822562979
-69.94,-25.22,5.3,4.999315537303217,5.0,0.2000273822562979
-69.37,-19.01,6.5,4.999315537303217,5.0,0.2000273822562979
-69.465,-29.009,5.0,4.999315537303217,5.0,0.2000273822562979
-69.437,-31.853,5.1,4.999315537303217,5.0,0.2000273822562979
-71.127,-31.094,5.2,4.999315537303217,5.0,0.2000273822562979
-67.772,-23.877,5.7,4.999315537303217,5.0,0.2000273822562979
-69.446,-18.334,5.0,4.999315537303217,5.0,0.2000273822562979
-67.351,-28.21,5.2,4.999315537303217,5.0,0.2000273822562979
-67.977,-23.1,5.0,4.999315537303217,5.0,0.2000273822562979
-67.217,-21.401,5.3,4.999315537303217,5.0,0.2000273822562979
-69.111,-31.264,5.0,4.999315537303217,5.0,0.2000273822562979
-70.437,-31.806,5.0,4.999315537303217,5.0,0.2000273822562979
-71.403,-40.559,5.1,4.999315537303217,5.0,0.2000273822562979
-69.05,-27.052,5.2,4.999315537303217,5.0,0.2000273822562979
-70.702,-18.072,5.3,4.999315537303217,5.0,0.2000273822562979
-66.85,-23.72,7.2,4.999315537303217,5.0,0.2000273822562979
-67.039,-24.471,5.1,4.999315537303217,5.0,0.2000273822562979
-69.92,-33.95,6.4,4.999315537303217,5.0,0.2000273822562979
-66.56,-21.635,5.2,4.999315537303217,5.0,0.2000273822562979
-66.22,-27.69,5.3,4.999315537303217,5.0,0.2000273822562979
-70.004,-31.407,5.0,4.999315537303217,5.0,0.2000273822562979
-69.95,-17.9,5.1,4.999315537303217,5.0,0.2000273822562979
-70.24,-19.33,5.2,4.999315537303217,5.0,0.2000273822562979
-67.617,-27.579,5.4,4.999315537303217,5.0,0.2000273822562979
-68.421,-20.887,5.2,4.999315537303217,5.0,0.2000273822562979
-70.687,-17.092,5.0,4.999315537303217,5.0,0.2000273822562979
-68.835,-18.202,5.0,4.999315537303217,5.0,0.2000273822562979
-68.51,-19.53,5.3,4.999315537303217,5.0,0.2000273822562979
-69.736,-21.565,5.5,4.999315537303217,5.0,0.2000273822562979
-66.355,-22.82,5.7,4.999315537303217,5.0,0.2000273822562979
-68.26,-31.819,5.0,4.999315537303217,5.0,0.2000273822562979
-69.832,-31.457,4.8,5.9986310746064335,4.7,0.08355026795178516
-65.956,-22.423,5.1,5.9986310746064335,4.7,0.08355026795178516
-68.965,-24.915,4.7,5.9986310746064335,4.7,0.08355026795178516
-70.284,-33.027,5.0,5.9986310746064335,4.7,0.08355026795178516
-70.591,-28.398,5.1,5.9986310746064335,4.7,0.08355026795178516
-67.949,-23.304,5.3,5.9986310746064335,4.7,0.08355026795178516
-68.69,-20.183,5.7,5.9986310746064335,4.7,0.08355026795178516
-69.912,-19.375,4.9,5.9986310746064335,4.7,0.08355026795178516
-69.37,-20.63,5.7,5.9986310746064335,4.7,0.08355026795178516
-67.01,-21.865,4.9,5.9986310746064335,4.7,0.08355026795178516
-70.069,-28.79,5.0,5.9986310746064335,4.7,0.08355026795178516
-68.33,-29.49,5.4,5.9986310746064335,4.7,0.08355026795178516
-66.892,-27.902,4.8,5.9986310746064335,4.7,0.08355026795178516
-70.292,-34.445,5.3,5.9986310746064335,4.7,0.08355026795178516
-70.157,-32.493,4.8,5.9986310746064335,4.7,0.08355026795178516
-70.073,-18.873,5.2,5.9986310746064335,4.7,0.08355026795178516
-67.28,-28.95,5.7,5.9986310746064335,4.7,0.08355026795178516
-71.172,-32.193,5.1,5.9986310746064335,4.7,0.08355026795178516
-70.92,-32.95,5.2,5.9986310746064335,4.7,0.08355026795178516
-69.049,-17.495,5.4,5.9986310746064335,4.7,0.08355026795178516
-66.4,-28.15,5.6,5.9986310746064335,4.7,0.08355026795178516
-69.909,-17.602,4.9,5.9986310746064335,4.7,0.08355026795178516
-69.731,-21.108,4.7,5.9986310746064335,4.7,0.08355026795178516
-66.598,-21.485,4.9,5.9986310746064335,4.7,0.08355026795178516
-70.436,-18.257,5.3,5.9986310746064335,4.7,0.08355026795178516
-69.144,-24.226,5.8,5.9986310746064335,4.7,0.08355026795178516
-69.63,-24.45,5.8,5.9986310746064335,4.7,0.08355026795178516
-68.31,-22.95,5.9,5.9986310746064335,4.7,0.08355026795178516
-71.113,-17.723,5.3,5.9986310746064335,4.7,0.08355026795178516
-70.53,-17.35,5.4,5.9986310746064335,4.7,0.08355026795178516
-66.39,-19.68,6.1,5.9986310746064335,4.7,0.08355026795178516
-67.462,-28.266,4.8,5.9986310746064335,4.7,0.08355026795178516
-68.778,-19.701,4.9,5.9986310746064335,4.7,0.08355026795178516
-70.953,-18.153,5.1,5.9986310746064335,4.7,0.08355026795178516
-69.42,-18.25,5.6,5.9986310746064335,4.7,0.08355026795178516
-69.973,-27.899,5.0,5.9986310746064335,4.7,0.08355026795178516
-69.802,-31.901,5.2,5.9986310746064335,4.7,0.08355026795178516
-69.809,-32.662,4.7,5.9986310746064335,4.7,0.08355026795178516
-68.213,-23.64,4.8,5.9986310746064335,4.7,0.08355026795178516
-66.754,-18.472,5.1,5.9986310746064335,4.7,0.08355026795178516
-68.638,-24.089,5.0,5.9986310746064335,4.7,0.08355026795178516
-67.209,-22.034,4.8,5.9986310746064335,4.7,0.08355026795178516
-67.276,-27.333,5.2,5.9986310746064335,4.7,0.08355026795178516
-68.336,-19.741,4.7,5.9986310746064335,4.7,0.08355026795178516
-68.834,-25.916,4.9,5.9986310746064335,4.7,0.08355026795178516
-69.24,-25.984,4.9,5.9986310746064335,4.7,0.08355026795178516
-66.87,-24.52,5.4,5.9986310746064335,4.7,0.08355026795178516
-68.96,-28.43,5.4,5.9986310746064335,4.7,0.08355026795178516
-68.82,-22.26,5.4,5.9986310746064335,4.7,0.08355026795178516
-71.219,-31.761,4.7,5.9986310746064335,4.7,0.08355026795178516
-72.02,-36.19,5.1,5.9986310746064335,4.7,0.08355026795178516
-68.01,-21.25,5.2,5.9986310746064335,4.7,0.08355026795178516
-69.874,-24.943,4.8,5.9986310746064335,4.7,0.08355026795178516
-69.513,-30.31,4.8,5.9986310746064335,4.7,0.08355026795178516
-69.421,-19.594,5.4,5.9986310746064335,4.7,0.08355026795178516
-67.418,-21.326,4.9,5.9986310746064335,4.7,0.08355026795178516
-70.222,-33.229,4.9,5.9986310746064335,4.7,0.08355026795178516
-67.004,-19.217,4.7,5.9986310746064335,4.7,0.08355026795178516
-70.191,-28.605,5.1,5.9986310746064335,4.7,0.08355026795178516
-68.715,-23.261,5.3,5.9986310746064335,4.7,0.08355026795178516
-71.568,-34.776,5.5,5.9986310746064335,4.7,0.08355026795178516
-67.643,-28.363,4.9,5.9986310746064335,4.7,0.08355026795178516
-69.599,-21.787,5.1,5.9986310746064335,4.7,0.08355026795178516
-67.3,-31.77,5.4,5.9986310746064335,4.7,0.08355026795178516
-70.12,-25.51,5.4,5.9986310746064335,4.7,0.08355026795178516
-69.83,-17.97,5.4,5.9986310746064335,4.7,0.08355026795178516
-69.328,-22.363,4.8,5.9986310746064335,4.7,0.08355026795178516
-68.458,-19.002,5.1,5.9986310746064335,4.7,0.08355026795178516
-66.258,-22.498,5.5,5.9986310746064335,4.7,0.08355026795178516
-68.751,-25.133,4.8,5.9986310746064335,4.7,0.08355026795178516
-69.899,-31.645,4.8,5.9986310746064335,4.7,0.08355026795178516
-69.13,-20.33,5.5,5.9986310746064335,4.7,0.08355026795178516
-68.773,-21.012,5.0,5.9986310746064335,4.7,0.08355026795178516
-71.329,-37.57,4.7,5.9986310746064335,4.7,0.08355026795178516
-67.91,-23.32,5.2,5.9986310746064335,4.7,0.08355026795178516
-68.57,-21.69,6.5,5.9986310746064335,4.7,0.08355026795178516
-65.815,-21.928,5.1,5.9986310746064335,4.7,0.08355026795178516
-70.49,-36.924,5.1,5.9986310746064335,4.7,0.08355026795178516
-70.391,-27.582,5.4,5.9986310746064335,4.7,0.08355026795178516
-70.972,-37.276,4.7,5.9986310746064335,4.7,0.08355026795178516
-68.799,-32.18,4.9,5.9986310746064335,4.7,0.08355026795178516
-68.53,-20.038,5.1,5.9986310746064335,4.7,0.08355026795178516
-70.223,-26.812,4.7,5.9986310746064335,4.7,0.08355026795178516
-68.131,-23.654,4.7,5.9986310746064335,4.7,0.08355026795178516
-69.088,-17.346,4.7,5.9986310746064335,4.7,0.08355026795178516
-70.752,-33.313,5.0,5.9986310746064335,4.7,0.08355026795178516
-69.496,-26.164,4.7,5.9986310746064335,4.7,0.08355026795178516
-68.317,-31.721,4.8,5.9986310746064335,4.7,0.08355026795178516
-69.316,-24.421,4.7,5.9986310746064335,4.7,0.08355026795178516
-69.054,-19.136,4.9,5.9986310746064335,4.7,0.08355026795178516
-67.534,-27.914,5.0,5.9986310746064335,4.7,0.08355026795178516
-70.133,-25.973,4.9,5.9986310746064335,4.7,0.08355026795178516
-68.953,-28.33,5.1,5.9986310746064335,4.7,0.08355026795178516
-68.34,-18.768,4.9,5.9986310746064335,4.7,0.08355026795178516
-69.12,-31.48,6.2,5.9986310746064335,4.7,0.08355026795178516
-71.07,-35.17,5.3,5.9986310746064335,4.7,0.08355026795178516
-67.948,-22.625,5.0,5.9986310746064335,4.7,0.08355026795178516
-69.382,-29.306,5.0,5.9986310746064335,4.7,0.08355026795178516
-68.066,-21.241,4.8,5.9986310746064335,4.7,0.08355026795178516
-66.535,-22.995,5.3,5.9986310746064335,4.7,0.08355026795178516
-69.044,-29.763,5.8,5.9986310746064335,4.7,0.08355026795178516
-67.4,-21.048,5.3,5.9986310746064335,4.7,0.08355026795178516
-66.67,-28.049,5.0,5.9986310746064335,4.7,0.08355026795178516
-69.35,-18.193,4.8,5.9986310746064335,4.7,0.08355026795178516
-69.278,-18.802,5.2,5.9986310746064335,4.7,0.08355026795178516
-67.28,-31.86,5.3,5.9986310746064335,4.7,0.08355026795178516
-67.7,-28.427,5.0,5.9986310746064335,4.7,0.08355026795178516
-72.772,-38.552,5.0,5.9986310746064335,4.7,0.08355026795178516
-72.231,-38.483,4.9,5.9986310746064335,4.7,0.08355026795178516
-66.063,-22.554,5.1,5.9986310746064335,4.7,0.08355026795178516
-66.528,-23.888,5.1,5.9986310746064335,4.7,0.08355026795178516
-70.65,-36.827,5.0,5.9986310746064335,4.7,0.08355026795178516
-68.978,-23.111,4.9,5.9986310746064335,4.7,0.08355026795178516
-70.22,-33.6,5.7,5.9986310746064335,4.7,0.08355026795178516
-65.162,-30.646,5.5,5.9986310746064335,4.7,0.08355026795178516
-68.547,-23.18,5.2,5.9986310746064335,4.7,0.08355026795178516
-65.83,-31.263,4.8,5.9986310746064335,4.7,0.08355026795178516
-68.883,-18.216,5.3,5.9986310746064335,4.7,0.08355026795178516
-69.542,-17.748,5.4,5.9986310746064335,4.7,0.08355026795178516
-66.951,-24.122,5.1,5.9986310746064335,4.7,0.08355026795178516
-68.976,-24.444,5.3,5.9986310746064335,4.7,0.08355026795178516
-72.379,-39.57,4.8,5.9986310746064335,4.7,0.08355026795178516
-68.18,-25.193,4.8,5.9986310746064335,4.7,0.08355026795178516
-69.31,-23.48,5.3,5.9986310746064335,4.7,0.08355026795178516
-68.566,-20.962,5.4,5.9986310746064335,4.7,0.08355026795178516
-67.843,-32.123,4.9,5.9986310746064335,4.7,0.08355026795178516
-67.283,-22.347,4.7,5.9986310746064335,4.7,0.08355026795178516
-68.757,-26.138,4.8,5.9986310746064335,4.7,0.08355026795178516
-71.334,-40.319,5.0,5.9986310746064335,4.7,0.08355026795178516
-67.864,-24.15,5.5,5.9986310746064335,4.7,0.08355026795178516
-66.714,-21.439,4.9,5.9986310746064335,4.7,0.08355026795178516
-66.723,-23.415,4.9,5.9986310746064335,4.7,0.08355026795178516
-66.465,-24.083,4.7,5.9986310746064335,4.7,0.08355026795178516
-68.946,-28.541,4.9,5.9986310746064335,4.7,0.08355026795178516
-71.115,-33.941,5.2,5.9986310746064335,4.7,0.08355026795178516
-68.107,-21.189,5.2,5.9986310746064335,4.7,0.08355026795178516
-70.183,-19.273,4.8,5.9986310746064335,4.7,0.08355026795178516
-68.82,-22.22,5.3,5.9986310746064335,4.7,0.08355026795178516
-68.457,-23.984,4.8,5.9986310746064335,4.7,0.08355026795178516
-69.541,-19.17,5.3,5.9986310746064335,4.7,0.08355026795178516
-65.19,-20.05,6.0,5.9986310746064335,4.7,0.08355026795178516
-70.522,-28.206,5.2,5.9986310746064335,4.7,0.08355026795178516
-70.032,-28.944,4.9,5.9986310746064335,4.7,0.08355026795178516
-69.81,-28.541,5.1,5.9986310746064335,4.7,0.08355026795178516
-66.684,-22.817,5.2,5.9986310746064335,4.7,0.08355026795178516
-66.85,-17.868,4.7,5.9986310746064335,4.7,0.08355026795178516
-67.131,-27.914,5.0,5.9986310746064335,4.7,0.08355026795178516
-68.732,-23.489,4.7,5.9986310746064335,4.7,0.08355026795178516
-69.983,-30.058,4.9,5.9986310746064335,4.7,0.08355026795178516
-72.735,-40.438,4.7,5.9986310746064335,4.7,0.08355026795178516
-72.427,-39.153,5.2,5.9986310746064335,4.7,0.08355026795178516
-71.11,-35.54,5.1,5.9986310746064335,4.7,0.08355026795178516
-66.533,-28.014,5.3,5.9986310746064335,4.7,0.08355026795178516
-69.64,-18.22,5.2,5.9986310746064335,4.7,0.08355026795178516
-70.439,-27.41,4.7,5.9986310746064335,4.7,0.08355026795178516
-70.751,-34.633,4.8,5.9986310746064335,4.7,0.08355026795178516
-69.257,-18.873,4.8,5.9986310746064335,4.7,0.08355026795178516
-69.428,-24.373,4.7,5.9986310746064335,4.7,0.08355026795178516
-69.887,-17.708,5.3,5.9986310746064335,4.7,0.08355026795178516
-70.18,-18.15,5.2,5.9986310746064335,4.7,0.08355026795178516
-68.501,-31.315,5.1,5.9986310746064335,4.7,0.08355026795178516
-67.66,-23.25,5.6,5.9986310746064335,4.7,0.08355026795178516
-68.652,-22.968,4.8,5.9986310746064335,4.7,0.08355026795178516
-69.229,-26.958,4.8,5.9986310746064335,4.7,0.08355026795178516
-66.889,-24.127,5.1,5.9986310746064335,4.7,0.08355026795178516
-69.415,-24.925,5.5,5.9986310746064335,4.7,0.08355026795178516
-70.394,-17.173,5.3,5.9986310746064335,4.7,0.08355026795178516
-68.399,-20.207,5.2,5.9986310746064335,4.7,0.08355026795178516
-69.782,-35.656,4.7,5.9986310746064335,4.7,0.08355026795178516
-69.963,-19.574,4.8,5.9986310746064335,4.7,0.08355026795178516
-67.308,-24.595,5.4,5.9986310746064335,4.7,0.08355026795178516
-68.213,-23.999,4.7,5.9986310746064335,4.7,0.08355026795178516
-67.116,-27.422,4.8,5.9986310746064335,4.7,0.08355026795178516
-72.146,-35.701,4.7,5.9986310746064335,4.7,0.08355026795178516
-69.053,-30.496,4.8,5.9986310746064335,4.7,0.08355026795178516
-65.6,-21.24,6.1,5.9986310746064335,4.7,0.08355026795178516
-68.965,-27.67,4.8,5.9986310746064335,4.7,0.08355026795178516
-68.877,-29.821,4.9,5.9986310746064335,4.7,0.08355026795178516
-68.02,-25.52,5.4,5.9986310746064335,4.7,0.08355026795178516
-66.257,-22.273,4.9,5.9986310746064335,4.7,0.08355026795178516
-66.191,-21.672,5.1,5.9986310746064335,4.7,0.08355026795178516
-71.332,-34.142,5.1,5.9986310746064335,4.7,0.08355026795178516
-72.559,-36.687,5.2,5.9986310746064335,4.7,0.08355026795178516
-66.594,-23.109,5.0,5.9986310746064335,4.7,0.08355026795178516
-69.087,-23.662,5.1,5.9986310746064335,4.7,0.08355026795178516
-70.5,-33.59,5.0,5.9986310746064335,4.7,0.08355026795178516
-67.289,-21.43,4.7,5.9986310746064335,4.7,0.08355026795178516
-70.246,-28.223,4.7,5.9986310746064335,4.7,0.08355026795178516
-68.346,-21.083,5.2,5.9986310746064335,4.7,0.08355026795178516
-69.19,-20.82,5.0,5.9986310746064335,4.7,0.08355026795178516
-70.83,-17.42,5.4,5.9986310746064335,4.7,0.08355026795178516
-68.153,-32.175,5.3,5.9986310746064335,4.7,0.08355026795178516
-66.83,-21.394,5.0,5.9986310746064335,4.7,0.08355026795178516
-70.129,-31.706,5.7,5.9986310746064335,4.7,0.08355026795178516
-66.608,-23.925,4.7,5.9986310746064335,4.7,0.08355026795178516
-67.385,-22.73,5.3,5.9986310746064335,4.7,0.08355026795178516
-67.335,-21.991,5.2,5.9986310746064335,4.7,0.08355026795178516
-67.57,-29.223,4.7,5.9986310746064335,4.7,0.08355026795178516
-67.577,-31.399,5.1,5.9986310746064335,4.7,0.08355026795178516
-66.837,-28.035,4.9,5.9986310746064335,4.7,0.08355026795178516
-69.376,-26.334,4.7,5.9986310746064335,4.7,0.08355026795178516
-68.93,-17.65,5.3,5.9986310746064335,4.7,0.08355026795178516
-67.629,-28.476,4.9,5.9986310746064335,4.7,0.08355026795178516
-68.083,-28.389,4.8,5.9986310746064335,4.7,0.08355026795178516
-68.439,-31.093,4.8,5.9986310746064335,4.7,0.08355026795178516
-69.819,-18.693,4.9,5.9986310746064335,4.7,0.08355026795178516
-66.741,-18.165,5.1,5.9986310746064335,4.7,0.08355026795178516
-69.249,-18.023,5.0,5.9986310746064335,4.7,0.08355026795178516
-71.059,-40.256,4.8,5.9986310746064335,4.7,0.08355026795178516
-71.217,-31.26,4.9,5.9986310746064335,4.7,0.08355026795178516
-69.333,-18.846,5.4,5.9986310746064335,4.7,0.08355026795178516
-66.582,-22.713,5.1,5.9986310746064335,4.7,0.08355026795178516
-68.816,-22.291,5.1,5.9986310746064335,4.7,0.08355026795178516
-70.076,-19.101,4.7,5.9986310746064335,4.7,0.08355026795178516
-67.401,-19.472,4.8,5.9986310746064335,4.7,0.08355026795178516
-69.438,-27.714,5.0,5.9986310746064335,4.7,0.08355026795178516
-67.077,-29.957,5.3,5.9986310746064335,4.7,0.08355026795178516
-67.382,-27.891,5.4,5.9986310746064335,4.7,0.08355026795178516
-70.003,-28.061,5.0,5.9986310746064335,4.7,0.08355026795178516
-69.726,-28.59,4.7,5.9986310746064335,4.7,0.08355026795178516
-67.119,-29.165,5.1,5.9986310746064335,4.7,0.08355026795178516
-66.789,-20.071,5.0,5.9986310746064335,4.7,0.08355026795178516
-65.966,-22.401,5.2,5.9986310746064335,4.7,0.08355026795178516
-70.489,-18.486,5.2,5.9986310746064335,4.7,0.08355026795178516
-69.2,-22.57,4.7,5.9986310746064335,4.7,0.08355026795178516
-71.186,-36.804,4.8,5.9986310746064335,4.7,0.08355026795178516
-69.716,-23.109,4.9,5.9986310746064335,4.7,0.08355026795178516
-70.19,-19.446,4.9,5.9986310746064335,4.7,0.08355026795178516
-73.138,-40.939,4.8,5.9986310746064335,4.7,0.08355026795178516
-66.82,-23.15,5.2,5.9986310746064335,4.7,0.08355026795178516
-66.567,-23.78,5.0,5.9986310746064335,4.7,0.08355026795178516
-68.511,-21.045,4.8,5.9986310746064335,4.7,0.08355026795178516
-66.708,-31.485,4.7,5.9986310746064335,4.7,0.08355026795178516
-69.83,-29.614,5.1,5.9986310746064335,4.7,0.08355026795178516
-69.091,-21.398,5.2,5.9986310746064335,4.7,0.08355026795178516
-70.764,-37.5,5.1,5.9986310746064335,4.7,0.08355026795178516
-70.91,-32.94,5.0,5.9986310746064335,4.7,0.08355026795178516
-69.555,-18.262,5.0,5.9986310746064335,4.7,0.08355026795178516
-67.804,-31.293,4.9,5.9986310746064335,4.7,0.08355026795178516
-68.235,-29.016,4.7,5.9986310746064335,4.7,0.08355026795178516
-70.191,-32.481,5.0,5.9986310746064335,4.7,0.08355026795178516
-68.57,-21.68,5.4,5.9986310746064335,4.7,0.08355026795178516
-66.683,-21.321,5.2,5.9986310746064335,4.7,0.08355026795178516
-68.071,-24.111,5.0,5.9986310746064335,4.7,0.08355026795178516
-69.605,-21.003,4.8,5.9986310746064335,4.7,0.08355026795178516
-67.396,-21.089,5.3,5.9986310746064335,4.7,0.08355026795178516
-68.654,-23.317,4.9,5.9986310746064335,4.7,0.08355026795178516
-66.03,-20.885,5.1,5.9986310746064335,4.7,0.08355026795178516
-69.409,-17.485,5.0,5.9986310746064335,4.7,0.08355026795178516
-71.217,-35.265,5.1,5.9986310746064335,4.7,0.08355026795178516
-66.473,-31.699,4.8,5.9986310746064335,4.7,0.08355026795178516
-69.95,-17.77,5.8,5.9986310746064335,4.7,0.08355026795178516
-68.235,-32.976,5.1,5.9986310746064335,4.7,0.08355026795178516
-66.129,-22.926,5.0,5.9986310746064335,4.7,0.08355026795178516
-67.221,-20.724,4.7,5.9986310746064335,4.7,0.08355026795178516
-66.702,-20.385,4.7,5.9986310746064335,4.7,0.08355026795178516
-70.642,-32.593,5.1,5.9986310746064335,4.7,0.08355026795178516
-69.865,-32.742,5.1,5.9986310746064335,4.7,0.08355026795178516
-68.482,-19.582,4.9,5.9986310746064335,4.7,0.08355026795178516
-66.609,-27.751,4.8,5.9986310746064335,4.7,0.08355026795178516
-68.493,-31.314,5.0,5.9986310746064335,4.7,0.08355026795178516
-70.152,-28.488,4.9,5.9986310746064335,4.7,0.08355026795178516
-69.738,-31.54,4.9,5.9986310746064335,4.7,0.08355026795178516
-68.022,-29.407,4.7,5.9986310746064335,4.7,0.08355026795178516
-71.11,-30.512,5.1,5.9986310746064335,4.7,0.08355026795178516
-69.29,-28.52,5.2,5.9986310746064335,4.7,0.08355026795178516
-69.23,-20.02,7.8,5.9986310746064335,4.7,0.08355026795178516
-68.877,-24.275,4.7,5.9986310746064335,4.7,0.08355026795178516
-67.661,-28.304,5.0,5.9986310746064335,4.7,0.08355026795178516
-70.535,-31.789,4.9,5.9986310746064335,4.7,0.08355026795178516
-70.41,-17.95,5.7,5.9986310746064335,4.7,0.08355026795178516
-68.752,-19.041,5.2,5.9986310746064335,4.7,0.08355026795178516
-68.167,-21.405,5.0,5.9986310746064335,4.7,0.08355026795178516
-67.626,-19.921,4.7,5.9986310746064335,4.7,0.08355026795178516
-70.236,-32.303,5.0,5.9986310746064335,4.7,0.08355026795178516
-70.115,-19.343,5.0,5.9986310746064335,4.7,0.08355026795178516
-66.921,-18.302,4.8,5.9986310746064335,4.7,0.08355026795178516
-70.129,-25.795,4.7,5.9986310746064335,4.7,0.08355026795178516
-70.321,-35.035,5.0,5.9986310746064335,4.7,0.08355026795178516
-65.3,-20.3,4.8,5.9986310746064335,4.7,0.08355026795178516
-70.709,-33.479,4.7,5.9986310746064335,4.7,0.08355026795178516
-71.659,-36.268,4.9,5.9986310746064335,4.7,0.08355026795178516
-67.385,-23.7,5.0,5.9986310746064335,4.7,0.08355026795178516
-69.136,-31.68,6.2,5.9986310746064335,4.7,0.08355026795178516
-67.884,-24.17,5.2,5.9986310746064335,4.7,0.08355026795178516
-68.247,-23.108,5.1,5.9986310746064335,4.7,0.08355026795178516
-69.055,-24.893,5.6,5.9986310746064335,4.7,0.08355026795178516
-70.485,-28.037,4.8,5.9986310746064335,4.7,0.08355026795178516
-68.268,-23.678,4.9,5.9986310746064335,4.7,0.08355026795178516
-68.81,-21.85,5.5,5.9986310746064335,4.7,0.08355026795178516
-70.19,-18.774,4.7,5.9986310746064335,4.7,0.08355026795178516
-66.682,-23.39,4.9,5.9986310746064335,4.7,0.08355026795178516
-70.374,-29.024,4.7,5.9986310746064335,4.7,0.08355026795178516
-69.501,-18.821,5.1,5.9986310746064335,4.7,0.08355026795178516
-68.13,-22.46,6.8,5.9986310746064335,4.7,0.08355026795178516
-72.201,-36.749,5.3,5.9986310746064335,4.7,0.08355026795178516
-70.991,-29.382,5.2,5.9986310746064335,4.7,0.08355026795178516
-67.223,-21.367,5.1,5.9986310746064335,4.7,0.08355026795178516
-66.588,-23.841,5.1,5.9986310746064335,4.7,0.08355026795178516
-67.136,-27.897,5.8,5.9986310746064335,4.7,0.08355026795178516
-66.473,-21.369,4.7,5.9986310746064335,4.7,0.08355026795178516
-68.583,-31.343,5.2,5.9986310746064335,4.7,0.08355026795178516
-70.67,-17.125,4.8,5.9986310746064335,4.7,0.08355026795178516
-71.549,-39.966,5.6,5.9986310746064335,4.7,0.08355026795178516
-68.399,-28.997,5.1,5.9986310746064335,4.7,0.08355026795178516
-66.34,-23.12,5.4,5.9986310746064335,4.7,0.08355026795178516
-69.286,-17.88,5.1,5.9986310746064335,4.7,0.08355026795178516
-68.204,-20.279,4.8,5.9986310746064335,4.7,0.08355026795178516
-69.998,-32.153,5.1,5.9986310746064335,4.7,0.08355026795178516
-68.036,-28.305,5.1,5.9986310746064335,4.7,0.08355026795178516
-68.594,-25.331,4.9,5.9986310746064335,4.7,0.08355026795178516
-70.647,-28.748,4.7,5.9986310746064335,4.7,0.08355026795178516
-68.784,-27.472,5.0,5.9986310746064335,4.7,0.08355026795178516
-69.728,-18.199,4.8,5.9986310746064335,4.7,0.08355026795178516
-66.528,-20.258,4.9,5.9986310746064335,4.7,0.08355026795178516
-71.771,-39.375,4.8,5.9986310746064335,4.7,0.08355026795178516
-70.989,-35.317,4.7,5.9986310746064335,4.7,0.08355026795178516
-71.12,-36.336,4.7,5.9986310746064335,4.7,0.08355026795178516
-67.232,-21.878,5.6,5.9986310746064335,4.7,0.08355026795178516
-69.55,-28.49,5.4,5.9986310746064335,4.7,0.08355026795178516
-69.81,-21.03,5.22,5.9986310746064335,4.7,0.08355026795178516
-68.867,-19.21,4.8,5.9986310746064335,4.7,0.08355026795178516
-72.439,-39.586,4.9,5.9986310746064335,4.7,0.08355026795178516
-67.398,-22.722,4.9,5.9986310746064335,4.7,0.08355026795178516
-71.321,-35.542,4.8,5.9986310746064335,4.7,0.08355026795178516
-70.04,-32.85,5.0,5.9986310746064335,4.7,0.08355026795178516
-69.656,-17.432,4.7,5.9986310746064335,4.7,0.08355026795178516
-68.6,-19.473,4.7,5.9986310746064335,4.7,0.08355026795178516
-68.392,-31.988,5.1,5.9986310746064335,4.7,0.08355026795178516
-66.668,-23.905,4.8,5.9986310746064335,4.7,0.08355026795178516
-70.049,-19.373,4.8,5.9986310746064335,4.7,0.08355026795178516
-69.677,-29.646,4.9,5.9986310746064335,4.7,0.08355026795178516
-67.254,-20.835,4.8,5.9986310746064335,4.7,0.08355026795178516
-68.695,-22.762,5.7,5.9986310746064335,4.7,0.08355026795178516
-68.89,-21.42,5.5,5.9986310746064335,4.7,0.08355026795178516
-66.47,-28.07,5.1,5.9986310746064335,4.7,0.08355026795178516
-66.529,-21.445,5.1,5.9986310746064335,4.7,0.08355026795178516
-71.832,-37.093,5.1,5.9986310746064335,4.7,0.08355026795178516
-67.38,-28.69,5.5,5.9986310746064335,4.7,0.08355026795178516
-68.845,-27.492,4.7,5.9986310746064335,4.7,0.08355026795178516
-69.289,-27.631,4.8,5.9986310746064335,4.7,0.08355026795178516
-70.822,-31.898,4.8,5.9986310746064335,4.7,0.08355026795178516
-69.708,-23.398,5.0,5.9986310746064335,4.7,0.08355026795178516
-68.659,-31.068,4.9,5.9986310746064335,4.7,0.08355026795178516
-68.45,-29.29,5.0,5.9986310746064335,4.7,0.08355026795178516
-67.18,-24.44,6.6,5.9986310746064335,4.7,0.08355026795178516
-69.48,-31.068,4.9,5.9986310746064335,4.7,0.08355026795178516
-70.86,-28.89,5.1,5.9986310746064335,4.7,0.08355026795178516
-69.981,-32.073,5.0,5.9986310746064335,4.7,0.08355026795178516
-70.57,-32.656,5.2,5.9986310746064335,4.7,0.08355026795178516
-69.13,-29.19,5.9,5.9986310746064335,4.7,0.08355026795178516
-67.15,-31.9,6.2,5.9986310746064335,4.7,0.08355026795178516
-69.67,-18.91,5.0,5.9986310746064335,4.7,0.08355026795178516
-72.524,-38.844,4.8,5.9986310746064335,4.7,0.08355026795178516
-72.076,-35.727,5.5,5.9986310746064335,4.7,0.08355026795178516
-69.27,-24.13,5.7,5.9986310746064335,4.7,0.08355026795178516
-67.238,-22.316,5.1,5.9986310746064335,4.7,0.08355026795178516
-69.219,-17.94,5.0,5.9986310746064335,4.7,0.08355026795178516
-69.57,-18.22,5.3,5.9986310746064335,4.7,0.08355026795178516
-68.47,-21.09,5.9,5.9986310746064335,4.7,0.08355026795178516
-70.186,-28.233,4.9,5.9986310746064335,4.7,0.08355026795178516
-65.75,-21.77,5.8,5.9986310746064335,4.7,0.08355026795178516
-66.995,-23.674,4.9,5.9986310746064335,4.7,0.08355026795178516
-66.728,-23.956,4.9,5.9986310746064335,4.7,0.08355026795178516
-68.76,-23.37,5.7,5.9986310746064335,4.7,0.08355026795178516
-68.845,-18.616,4.7,5.9986310746064335,4.7,0.08355026795178516
-67.717,-27.857,5.8,5.9986310746064335,4.7,0.08355026795178516
-70.18,-18.1,5.5,5.9986310746064335,4.7,0.08355026795178516
-69.427,-28.06,4.7,5.9986310746064335,4.7,0.08355026795178516
-71.071,-34.899,5.0,5.9986310746064335,4.7,0.08355026795178516
-67.632,-31.54,5.1,5.9986310746064335,4.7,0.08355026795178516
-67.714,-22.952,4.8,5.9986310746064335,4.7,0.08355026795178516
-70.244,-17.356,5.4,3.0006844626967832,4.7,0.16702430390726392
-71.23,-35.52,5.0,3.0006844626967832,4.7,0.16702430390726392
-70.622,-33.121,4.7,3.0006844626967832,4.7,0.16702430390726392
-66.952,-27.99,5.5,3.0006844626967832,4.7,0.16702430390726392
-72.26,-43.26,5.5,3.0006844626967832,4.7,0.16702430390726392
-65.291,-30.899,5.0,3.0006844626967832,4.7,0.16702430390726392
-68.027,-21.492,5.4,3.0006844626967832,4.7,0.16702430390726392
-68.678,-31.038,5.2,3.0006844626967832,4.7,0.16702430390726392
-70.395,-28.689,5.1,3.0006844626967832,4.7,0.16702430390726392
-66.608,-23.221,5.1,3.0006844626967832,4.7,0.16702430390726392
-69.67,-18.88,5.2,3.0006844626967832,4.7,0.16702430390726392
-67.72,-28.32,4.9,3.0006844626967832,4.7,0.16702430390726392
-67.438,-21.633,4.8,3.0006844626967832,4.7,0.16702430390726392
-66.597,-21.307,5.0,3.0006844626967832,4.7,0.16702430390726392
-68.66,-28.77,5.0,3.0006844626967832,4.7,0.16702430390726392
-69.259,-17.726,5.2,3.0006844626967832,4.7,0.16702430390726392
-67.178,-23.213,4.9,3.0006844626967832,4.7,0.16702430390726392
-71.228,-39.901,4.8,3.0006844626967832,4.7,0.16702430390726392
-69.56,-17.467,4.7,3.0006844626967832,4.7,0.16702430390726392
-69.296,-27.279,5.2,3.0006844626967832,4.7,0.16702430390726392
-69.818,-17.844,5.0,3.0006844626967832,4.7,0.16702430390726392
-70.3,-32.67,5.1,3.0006844626967832,4.7,0.16702430390726392
-66.0,-22.31,6.4,3.0006844626967832,4.7,0.16702430390726392
-71.016,-29.453,4.8,3.0006844626967832,4.7,0.16702430390726392
-67.399,-22.529,5.1,3.0006844626967832,4.7,0.16702430390726392
-66.264,-21.764,4.7,3.0006844626967832,4.7,0.16702430390726392
-66.726,-23.681,5.2,3.0006844626967832,4.7,0.16702430390726392
-66.66,-19.82,5.4,3.0006844626967832,4.7,0.16702430390726392
-68.983,-18.227,5.3,3.0006844626967832,4.7,0.16702430390726392
-67.748,-19.037,4.8,3.0006844626967832,4.7,0.16702430390726392
-72.313,-39.401,5.0,3.0006844626967832,4.7,0.16702430390726392
-67.984,-25.083,4.8,3.0006844626967832,4.7,0.16702430390726392
-67.161,-20.82,5.1,3.0006844626967832,4.7,0.16702430390726392
-66.985,-27.18,4.7,3.0006844626967832,4.7,0.16702430390726392
-67.504,-21.431,4.9,3.0006844626967832,4.7,0.16702430390726392
-70.791,-33.884,5.1,3.0006844626967832,4.7,0.16702430390726392
-67.838,-24.44,4.7,3.0006844626967832,4.7,0.16702430390726392
-66.556,-24.083,5.1,3.0006844626967832,4.7,0.16702430390726392
-69.174,-31.616,5.2,3.0006844626967832,4.7,0.16702430390726392
-69.514,-24.185,5.4,3.0006844626967832,4.7,0.16702430390726392
-66.705,-20.446,4.8,3.0006844626967832,4.7,0.16702430390726392
-68.421,-32.087,5.0,3.0006844626967832,4.7,0.16702430390726392
-69.736,-23.225,5.2,3.0006844626967832,4.7,0.16702430390726392
-66.48,-22.67,6.0,3.0006844626967832,4.7,0.16702430390726392
-69.9,-19.12,5.3,3.0006844626967832,4.7,0.16702430390726392
-68.81,-25.02,5.8,3.0006844626967832,4.7,0.16702430390726392
-69.06,-23.73,5.6,3.0006844626967832,4.7,0.16702430390726392
-67.829,-28.434,4.9,3.0006844626967832,4.7,0.16702430390726392
-67.003,-22.911,4.8,3.0006844626967832,4.7,0.16702430390726392
-68.916,-19.09,4.9,3.0006844626967832,4.7,0.16702430390726392
-71.102,-32.878,5.4,3.0006844626967832,4.7,0.16702430390726392
-70.367,-17.28,5.3,3.0006844626967832,4.7,0.16702430390726392
-68.77,-22.19,5.5,3.0006844626967832,4.7,0.16702430390726392
-68.724,-31.413,4.7,3.0006844626967832,4.7,0.16702430390726392
-69.619,-32.41,4.9,3.0006844626967832,4.7,0.16702430390726392
-69.454,-18.372,4.9,3.0006844626967832,4.7,0.16702430390726392
-68.88,-22.87,5.7,3.0006844626967832,4.7,0.16702430390726392
-67.507,-23.896,5.0,3.0006844626967832,4.7,0.16702430390726392
-70.144,-29.306,4.8,3.0006844626967832,4.7,0.16702430390726392
-69.303,-28.843,5.0,3.0006844626967832,4.7,0.16702430390726392
-70.946,-34.951,4.8,3.0006844626967832,4.7,0.16702430390726392
-68.77,-21.58,6.1,3.0006844626967832,4.7,0.16702430390726392
-69.075,-19.558,4.7,3.0006844626967832,4.7,0.16702430390726392
-67.355,-19.642,5.2,3.0006844626967832,4.7,0.16702430390726392
-71.083,-30.403,4.8,3.0006844626967832,4.7,0.16702430390726392
-66.765,-21.407,4.9,3.0006844626967832,4.7,0.16702430390726392
-69.74,-28.42,5.6,3.0006844626967832,4.7,0.16702430390726392
-68.158,-31.65,4.7,3.0006844626967832,4.7,0.16702430390726392
-70.669,-17.688,5.1,3.0006844626967832,4.7,0.16702430390726392
-67.087,-28.589,5.4,3.0006844626967832,4.7,0.16702430390726392
-69.42,-20.31,6.2,3.0006844626967832,4.7,0.16702430390726392
-69.908,-25.912,4.7,3.0006844626967832,4.7,0.16702430390726392
-67.195,-21.371,5.0,3.0006844626967832,4.7,0.16702430390726392
-70.937,-29.621,5.3,3.0006844626967832,4.7,0.16702430390726392
-69.868,-24.486,5.4,3.0006844626967832,4.7,0.16702430390726392
-68.258,-29.052,5.2,3.0006844626967832,4.7,0.16702430390726392
-69.644,-17.934,4.8,3.0006844626967832,4.7,0.16702430390726392
-70.832,-31.131,5.0,3.0006844626967832,4.7,0.16702430390726392
-70.015,-36.067,4.8,3.0006844626967832,4.7,0.16702430390726392
-68.707,-20.98,5.2,3.0006844626967832,4.7,0.16702430390726392
-66.196,-25.434,4.9,3.0006844626967832,4.7,0.16702430390726392
-70.52,-33.659,4.9,3.0006844626967832,4.7,0.16702430390726392
-71.19,-32.435,5.0,3.0006844626967832,4.7,0.16702430390726392
-70.232,-31.739,4.9,3.0006844626967832,4.7,0.16702430390726392
-69.447,-31.814,5.0,3.0006844626967832,4.7,0.16702430390726392
-71.395,-35.761,4.9,3.0006844626967832,4.7,0.16702430390726392
-66.521,-23.798,5.0,3.0006844626967832,4.7,0.16702430390726392
-69.5,-18.977,4.8,3.0006844626967832,4.7,0.16702430390726392
-68.236,-21.503,5.2,3.0006844626967832,4.7,0.16702430390726392
-66.699,-28.057,5.8,3.0006844626967832,4.7,0.16702430390726392
-67.886,-23.983,5.0,3.0006844626967832,4.7,0.16702430390726392
-69.181,-29.352,5.3,3.0006844626967832,4.7,0.16702430390726392
-67.66,-24.924,4.7,3.0006844626967832,4.7,0.16702430390726392
-65.681,-21.742,5.3,3.0006844626967832,4.7,0.16702430390726392
-68.228,-22.206,5.1,3.0006844626967832,4.7,0.16702430390726392
-70.169,-33.414,5.0,3.0006844626967832,4.7,0.16702430390726392
-69.46,-19.8,5.3,3.0006844626967832,4.7,0.16702430390726392
-68.615,-20.389,5.4,3.0006844626967832,4.7,0.16702430390726392
-71.04,-35.03,5.2,3.0006844626967832,4.7,0.16702430390726392
-67.639,-28.276,5.1,3.0006844626967832,4.7,0.16702430390726392
-68.931,-18.398,5.4,3.0006844626967832,4.7,0.16702430390726392
-73.085,-39.943,4.7,3.0006844626967832,4.7,0.16702430390726392
-65.23,-20.3,6.2,3.0006844626967832,4.7,0.16702430390726392
-67.031,-19.346,5.1,3.0006844626967832,4.7,0.16702430390726392
-68.954,-32.147,5.0,3.0006844626967832,4.7,0.16702430390726392
-69.49,-27.18,5.1,3.0006844626967832,4.7,0.16702430390726392
-69.241,-25.849,5.1,3.0006844626967832,4.7,0.16702430390726392
-71.177,-30.823,4.9,3.0006844626967832,4.7,0.16702430390726392
-68.751,-19.515,5.0,3.0006844626967832,4.7,0.16702430390726392
-67.448,-22.513,4.8,3.0006844626967832,4.7,0.16702430390726392
-69.511,-24.216,5.3,3.0006844626967832,4.7,0.16702430390726392
-72.118,-36.661,4.8,3.0006844626967832,4.7,0.16702430390726392
-68.02,-20.948,5.0,3.0006844626967832,4.7,0.16702430390726392
-68.14,-31.72,5.2,3.0006844626967832,4.7,0.16702430390726392
-68.34,-22.94,5.2,3.0006844626967832,4.7,0.16702430390726392
-67.824,-22.47,4.9,3.0006844626967832,4.7,0.16702430390726392
-69.3,-17.89,5.0,3.0006844626967832,4.7,0.16702430390726392
-68.766,-22.99,5.3,3.0006844626967832,4.7,0.16702430390726392
-70.582,-34.462,5.5,3.0006844626967832,4.7,0.16702430390726392
-70.498,-28.491,4.8,3.0006844626967832,4.7,0.16702430390726392
-67.03,-26.568,4.7,3.0006844626967832,4.7,0.16702430390726392
-71.22,-36.64,5.2,3.0006844626967832,4.7,0.16702430390726392
-67.81,-18.92,5.1,3.0006844626967832,4.7,0.16702430390726392
-68.571,-31.393,4.8,3.0006844626967832,4.7,0.16702430390726392
-70.15,-29.2,5.4,3.0006844626967832,4.7,0.16702430390726392
-65.284,-30.451,5.3,3.0006844626967832,4.7,0.16702430390726392
-66.836,-21.453,5.5,3.0006844626967832,4.7,0.16702430390726392
-71.341,-40.233,5.1,3.0006844626967832,4.7,0.16702430390726392
-66.488,-23.972,4.8,3.0006844626967832,4.7,0.16702430390726392
-67.561,-28.644,5.1,3.0006844626967832,4.7,0.16702430390726392
-70.991,-18.045,5.3,3.0006844626967832,4.7,0.16702430390726392
-65.51,-31.22,5.2,3.0006844626967832,4.7,0.16702430390726392
-69.151,-31.722,5.0,3.0006844626967832,4.7,0.16702430390726392
-70.031,-25.716,4.8,3.0006844626967832,4.7,0.16702430390726392
-69.012,-19.6,4.8,3.0006844626967832,4.7,0.16702430390726392
-69.938,-19.411,5.6,3.0006844626967832,4.7,0.16702430390726392
-70.581,-29.04,4.9,3.0006844626967832,4.7,0.16702430390726392
-68.55,-23.34,5.2,3.0006844626967832,4.7,0.16702430390726392
-71.611,-35.065,5.4,3.0006844626967832,4.7,0.16702430390726392
-69.49,-32.89,5.3,3.0006844626967832,4.7,0.16702430390726392
-70.4,-17.664,4.7,3.0006844626967832,4.7,0.16702430390726392
-69.98,-32.798,5.1,3.0006844626967832,4.7,0.16702430390726392
-69.317,-22.576,4.7,3.0006844626967832,4.7,0.16702430390726392
-71.4,-35.622,4.7,3.0006844626967832,4.7,0.16702430390726392
-69.882,-32.038,5.5,3.0006844626967832,4.7,0.16702430390726392
-67.01,-22.36,5.2,3.0006844626967832,4.7,0.16702430390726392
-66.223,-23.034,4.9,3.0006844626967832,4.7,0.16702430390726392
-70.24,-27.39,5.2,3.0006844626967832,4.7,0.16702430390726392
-68.07,-23.8,5.2,3.0006844626967832,4.7,0.16702430390726392
-68.601,-20.199,4.9,3.0006844626967832,4.7,0.16702430390726392
-70.89,-17.521,4.8,3.0006844626967832,4.7,0.16702430390726392
-68.428,-19.57,4.8,3.0006844626967832,4.7,0.16702430390726392
-66.569,-20.72,4.8,3.0006844626967832,4.7,0.16702430390726392
-69.08,-21.07,5.2,3.0006844626967832,4.7,0.16702430390726392
-69.887,-18.822,4.7,3.0006844626967832,4.7,0.16702430390726392
-70.77,-33.445,4.7,3.0006844626967832,4.7,0.16702430390726392
-66.618,-32.141,5.1,3.0006844626967832,4.7,0.16702430390726392
-69.829,-30.868,4.7,3.0006844626967832,4.7,0.16702430390726392
-67.52,-21.916,6.1,3.0006844626967832,4.7,0.16702430390726392
-67.664,-27.527,4.7,3.0006844626967832,4.7,0.16702430390726392
-66.93,-24.1,5.4,3.0006844626967832,4.7,0.16702430390726392
-69.109,-30.84,5.2,3.0006844626967832,4.7,0.16702430390726392
-66.71,-28.1,5.4,3.0006844626967832,4.7,0.16702430390726392
-70.153,-33.459,4.8,3.0006844626967832,4.7,0.16702430390726392
-68.123,-24.244,5.2,3.0006844626967832,4.7,0.16702430390726392
-68.404,-20.901,5.3,3.0006844626967832,4.7,0.16702430390726392
-66.65,-23.601,4.8,3.0006844626967832,4.7,0.16702430390726392
-68.563,-31.272,5.1,3.0006844626967832,4.7,0.16702430390726392
-68.99,-19.606,4.9,3.0006844626967832,4.7,0.16702430390726392
-67.33,-29.474,5.3,3.0006844626967832,4.7,0.16702430390726392
-69.336,-25.985,4.7,3.0006844626967832,4.7,0.16702430390726392
-69.529,-17.581,4.7,3.0006844626967832,4.7,0.16702430390726392
-70.19,-28.869,5.1,3.0006844626967832,4.7,0.16702430390726392
-69.22,-29.657,4.7,3.0006844626967832,4.7,0.16702430390726392
-66.83,-23.04,6.2,3.0006844626967832,4.7,0.16702430390726392
-67.716,-18.465,5.2,3.0006844626967832,4.7,0.16702430390726392
-66.957,-18.198,4.9,3.0006844626967832,4.7,0.16702430390726392
-69.635,-24.283,4.9,3.0006844626967832,4.7,0.16702430390726392
-66.07,-22.1,5.4,3.0006844626967832,4.7,0.16702430390726392
-68.199,-31.783,5.3,3.0006844626967832,4.7,0.16702430390726392
-68.712,-31.829,4.7,3.0006844626967832,4.7,0.16702430390726392
-69.234,-23.406,5.1,3.0006844626967832,4.7,0.16702430390726392
-68.132,-21.438,5.3,3.0006844626967832,4.7,0.16702430390726392
-68.97,-31.48,5.4,3.0006844626967832,4.7,0.16702430390726392
-70.466,-32.475,5.0,3.0006844626967832,4.7,0.16702430390726392
-67.23,-23.544,6.3,3.0006844626967832,4.7,0.16702430390726392
-69.443,-17.191,5.1,3.0006844626967832,4.7,0.16702430390726392
-69.986,-17.736,4.9,3.0006844626967832,4.7,0.16702430390726392
-66.903,-22.463,5.3,3.0006844626967832,4.7,0.16702430390726392
-66.352,-31.619,5.1,3.0006844626967832,4.7,0.16702430390726392
-67.431,-22.743,4.8,3.0006844626967832,4.7,0.16702430390726392
-68.789,-33.622,5.8,3.0006844626967832,4.7,0.16702430390726392
-70.958,-29.377,5.0,3.0006844626967832,4.7,0.16702430390726392
-66.141,-22.734,5.1,3.0006844626967832,4.7,0.16702430390726392
-68.39,-23.2,5.2,3.0006844626967832,4.7,0.16702430390726392
-71.618,-36.817,4.8,3.0006844626967832,4.7,0.16702430390726392
-71.339,-33.942,5.6,3.0006844626967832,4.7,0.16702430390726392
-66.59,-23.511,4.7,3.0006844626967832,4.7,0.16702430390726392
-68.798,-22.613,5.8,3.0006844626967832,4.7,0.16702430390726392
-69.319,-17.708,4.7,3.0006844626967832,4.7,0.16702430390726392
-66.607,-22.028,5.1,3.0006844626967832,4.7,0.16702430390726392
-70.399,-28.127,4.9,3.0006844626967832,4.7,0.16702430390726392
-68.76,-19.535,4.7,3.0006844626967832,4.7,0.16702430390726392
-68.533,-23.898,5.2,3.0006844626967832,4.7,0.16702430390726392
-71.014,-33.387,4.8,3.0006844626967832,4.7,0.16702430390726392
-68.36,-28.81,5.8,3.0006844626967832,4.7,0.16702430390726392
-67.723,-31.945,4.9,3.0006844626967832,4.7,0.16702430390726392
-69.719,-20.815,4.8,3.0006844626967832,4.7,0.16702430390726392
-69.915,-17.386,4.7,3.0006844626967832,4.7,0.16702430390726392
-65.126,-17.993,5.0,3.0006844626967832,4.7,0.16702430390726392
-66.878,-24.274,4.7,3.0006844626967832,4.7,0.16702430390726392
-69.782,-19.668,4.7,3.0006844626967832,4.7,0.16702430390726392
-70.704,-18.117,5.0,3.0006844626967832,4.7,0.16702430390726392
-67.729,-31.303,4.9,3.0006844626967832,4.7,0.16702430390726392
-71.722,-34.796,5.3,3.0006844626967832,4.7,0.16702430390726392
-72.348,-37.957,4.9,3.0006844626967832,4.7,0.16702430390726392
-70.77,-37.128,5.0,3.0006844626967832,4.7,0.16702430390726392
-66.915,-18.05,5.0,3.0006844626967832,4.7,0.16702430390726392
-68.28,-31.303,4.7,3.0006844626967832,4.7,0.16702430390726392
-71.191,-36.228,5.7,3.0006844626967832,4.7,0.16702430390726392
-69.279,-19.01,5.3,3.0006844626967832,4.7,0.16702430390726392
-72.512,-37.437,5.0,3.0006844626967832,4.7,0.16702430390726392
-69.34,-34.426,4.8,3.0006844626967832,4.7,0.16702430390726392
-72.119,-35.651,5.5,3.0006844626967832,4.7,0.16702430390726392
-70.261,-17.207,4.8,3.0006844626967832,4.7,0.16702430390726392
-68.244,-21.281,5.1,3.0006844626967832,4.7,0.16702430390726392
-69.989,-24.748,5.5,3.0006844626967832,4.7,0.16702430390726392
-69.433,-23.651,5.3,3.0006844626967832,4.7,0.16702430390726392
-67.333,-28.78,5.2,3.0006844626967832,4.7,0.16702430390726392
-67.51,-24.049,6.1,3.0006844626967832,4.7,0.16702430390726392
-72.931,-38.952,5.1,3.0006844626967832,4.7,0.16702430390726392
-66.649,-23.91,5.1,3.0006844626967832,4.7,0.16702430390726392
-67.914,-19.378,5.0,3.0006844626967832,4.7,0.16702430390726392
-67.345,-27.544,5.5,3.0006844626967832,4.7,0.16702430390726392
-67.269,-21.135,5.5,3.0006844626967832,4.7,0.16702430390726392
-67.63,-19.04,5.2,3.0006844626967832,4.7,0.16702430390726392
-70.265,-31.846,5.1,3.0006844626967832,4.7,0.16702430390726392
-69.868,-25.935,4.7,3.0006844626967832,4.7,0.16702430390726392
-65.605,-30.927,5.3,3.0006844626967832,4.7,0.16702430390726392
-68.695,-17.073,4.7,3.0006844626967832,4.7,0.16702430390726392
-66.64,-28.34,5.1,3.0006844626967832,4.7,0.16702430390726392
-68.829,-20.543,5.3,3.0006844626967832,4.7,0.16702430390726392
-73.14,-40.58,5.0,3.0006844626967832,4.7,0.16702430390726392
-69.094,-18.205,4.9,3.0006844626967832,4.7,0.16702430390726392
-70.083,-30.181,4.7,3.0006844626967832,4.7,0.16702430390726392
-68.446,-31.207,4.8,3.0006844626967832,4.7,0.16702430390726392
-69.491,-32.083,5.4,3.0006844626967832,4.7,0.16702430390726392
-68.79,-21.07,5.8,3.0006844626967832,4.7,0.16702430390726392
-70.631,-34.396,4.8,3.0006844626967832,4.7,0.16702430390726392
-69.742,-19.123,5.8,3.0006844626967832,4.7,0.16702430390726392
-71.86,-36.421,5.7,3.0006844626967832,4.7,0.16702430390726392
-69.081,-24.92,5.0,3.0006844626967832,4.7,0.16702430390726392
-69.727,-31.337,4.9,3.0006844626967832,4.7,0.16702430390726392
-70.738,-31.256,5.1,3.0006844626967832,4.7,0.16702430390726392
-66.534,-23.485,5.2,3.0006844626967832,4.7,0.16702430390726392
-67.086,-19.33,5.0,3.0006844626967832,4.7,0.16702430390726392
-69.18,-17.815,4.8,3.0006844626967832,4.7,0.16702430390726392
-67.72,-21.225,5.5,3.0006844626967832,4.7,0.16702430390726392
-71.103,-17.481,5.2,3.0006844626967832,4.7,0.16702430390726392
-66.928,-31.527,5.2,3.0006844626967832,4.7,0.16702430390726392
-69.742,-35.153,4.7,3.0006844626967832,4.7,0.16702430390726392
-71.854,-35.193,4.7,3.0006844626967832,4.7,0.16702430390726392
-69.788,-29.175,5.8,3.0006844626967832,4.7,0.16702430390726392
-65.337,-21.784,5.5,3.0006844626967832,4.7,0.16702430390726392
-69.45,-31.66,4.8,3.0006844626967832,4.7,0.16702430390726392
-68.973,-31.509,5.4,3.0006844626967832,4.7,0.16702430390726392
-69.164,-24.408,5.1,3.0006844626967832,4.7,0.16702430390726392
-68.898,-19.607,5.6,3.0006844626967832,4.7,0.16702430390726392
-66.933,-24.199,4.9,3.0006844626967832,4.7,0.16702430390726392
-70.239,-33.13,5.3,3.0006844626967832,4.7,0.16702430390726392
-69.96,-27.82,5.4,3.0006844626967832,4.7,0.16702430390726392
-69.208,-20.039,6.0,3.0006844626967832,4.7,0.16702430390726392
-69.022,-23.24,4.9,3.0006844626967832,4.7,0.16702430390726392
-66.917,-27.93,5.4,3.0006844626967832,4.7,0.16702430390726392
-66.774,-23.878,4.8,3.0006844626967832,4.7,0.16702430390726392
-68.245,-23.577,5.1,3.0006844626967832,4.7,0.16702430390726392
-69.44,-20.52,5.3,3.0006844626967832,4.7,0.16702430390726392
-66.158,-22.704,5.0,3.0006844626967832,4.7,0.16702430390726392
-69.73,-18.28,6.3,3.0006844626967832,4.7,0.16702430390726392
-69.29,-27.53,5.2,3.0006844626967832,4.7,0.16702430390726392
-66.605,-19.848,5.1,3.0006844626967832,4.7,0.16702430390726392
-70.622,-34.644,4.8,3.0006844626967832,4.7,0.16702430390726392
-70.832,-32.116,5.3,3.0006844626967832,4.7,0.16702430390726392
-69.953,-20.102,5.2,3.0006844626967832,4.7,0.16702430390726392
-68.117,-21.533,5.2,3.0006844626967832,4.7,0.16702430390726392
-68.604,-30.533,5.2,3.0006844626967832,4.7,0.16702430390726392
-66.429,-22.309,4.8,3.0006844626967832,4.7,0.16702430390726392
-69.753,-28.631,4.8,3.0006844626967832,4.7,0.16702430390726392
-68.307,-22.463,4.9,3.0006844626967832,4.7,0.16702430390726392
-66.386,-24.047,5.1,3.0006844626967832,4.7,0.16702430390726392
-68.541,-31.308,4.8,3.0006844626967832,4.7,0.16702430390726392
-67.933,-32.415,5.0,3.0006844626967832,4.7,0.16702430390726392
-68.68,-28.495,5.1,3.0006844626967832,4.7,0.16702430390726392
-66.702,-26.586,5.1,3.0006844626967832,4.7,0.16702430390726392
-69.281,-29.28,4.7,3.0006844626967832,4.7,0.16702430390726392
-67.152,-19.876,5.6,3.0006844626967832,4.7,0.16702430390726392
-71.786,-43.116,4.8,3.0006844626967832,4.7,0.16702430390726392
-69.25,-24.918,4.7,3.0006844626967832,4.7,0.16702430390726392
-72.704,-39.314,5.1,3.0006844626967832,4.7,0.16702430390726392
-69.159,-18.119,5.0,3.0006844626967832,4.7,0.16702430390726392
-68.63,-21.89,6.5,3.0006844626967832,4.7,0.16702430390726392
-70.813,-37.699,4.7,3.0006844626967832,4.7,0.16702430390726392
-67.683,-22.264,5.0,3.0006844626967832,4.7,0.16702430390726392
-68.246,-19.632,5.1,3.0006844626967832,4.7,0.16702430390726392
-67.436,-28.759,5.4,3.0006844626967832,4.7,0.16702430390726392
-70.174,-32.411,4.7,3.0006844626967832,4.7,0.16702430390726392
-67.814,-28.324,5.1,3.0006844626967832,4.7,0.16702430390726392
-68.771,-20.421,4.9,3.0006844626967832,4.7,0.16702430390726392
-69.131,-32.709,4.9,3.0006844626967832,4.7,0.16702430390726392
-65.431,-30.934,5.0,3.0006844626967832,4.7,0.16702430390726392
-71.17,-31.623,5.3,3.0006844626967832,4.7,0.16702430390726392
-67.389,-27.675,5.1,3.0006844626967832,4.7,0.16702430390726392
-68.93,-22.57,5.4,3.0006844626967832,4.7,0.16702430390726392
-70.131,-26.256,5.2,3.0006844626967832,4.7,0.16702430390726392
-70.532,-17.286,4.9,3.0006844626967832,4.7,0.16702430390726392
-66.54,-23.07,5.2,3.0006844626967832,4.7,0.16702430390726392
-71.543,-35.827,4.9,3.0006844626967832,4.7,0.16702430390726392
-68.531,-20.105,5.0,3.0006844626967832,4.7,0.16702430390726392
-69.917,-24.405,4.7,3.0006844626967832,4.7,0.16702430390726392
-69.132,-24.044,5.4,3.0006844626967832,4.7,0.16702430390726392
-66.543,-22.629,5.1,3.0006844626967832,4.7,0.16702430390726392
-66.901,-24.096,5.2,3.0006844626967832,4.7,0.16702430390726392
-68.515,-28.806,5.0,3.0006844626967832,4.7,0.16702430390726392
-68.29,-22.83,5.1,3.0006844626967832,4.7,0.16702430390726392
-67.657,-29.149,5.1,3.0006844626967832,4.7,0.16702430390726392
-68.779,-23.214,4.7,3.0006844626967832,4.7,0.16702430390726392
-71.736,-36.18,5.0,3.0006844626967832,4.7,0.16702430390726392
-66.649,-23.662,4.9,3.0006844626967832,4.7,0.16702430390726392
-69.263,-19.558,5.0,3.0006844626967832,4.7,0.16702430390726392
-70.25,-27.782,5.3,3.0006844626967832,4.7,0.16702430390726392
-68.787,-26.035,5.3,3.0006844626967832,4.7,0.16702430390726392
-67.883,-22.169,5.0,3.0006844626967832,4.7,0.16702430390726392
-68.739,-31.628,5.0,3.0006844626967832,4.7,0.16702430390726392
-66.784,-20.905,4.7,3.0006844626967832,4.7,0.16702430390726392
-66.6,-21.53,5.3,3.0006844626967832,4.7,0.16702430390726392
-68.804,-28.423,4.9,3.0006844626967832,4.7,0.16702430390726392
-66.905,-21.918,4.9,3.0006844626967832,4.7,0.16702430390726392
-71.166,-35.07,5.1,3.0006844626967832,4.7,0.16702430390726392
-69.538,-18.857,5.6,3.0006844626967832,4.7,0.16702430390726392
-69.1,-21.022,4.9,3.0006844626967832,4.7,0.16702430390726392
-69.273,-31.572,5.0,3.0006844626967832,4.7,0.16702430390726392
-70.79,-39.051,4.9,3.0006844626967832,4.7,0.16702430390726392
-71.664,-34.969,5.3,3.0006844626967832,4.7,0.16702430390726392
-69.752,-25.005,5.0,3.0006844626967832,4.7,0.16702430390726392
-72.029,-35.789,5.0,3.0006844626967832,4.7,0.16702430390726392
-67.331,-22.002,5.1,3.0006844626967832,4.7,0.16702430390726392
-71.21,-33.04,5.1,3.0006844626967832,4.7,0.16702430390726392
-69.501,-29.283,4.8,3.0006844626967832,4.7,0.16702430390726392
-67.294,-23.052,5.1,3.0006844626967832,4.7,0.16702430390726392
-69.275,-23.089,5.2,3.0006844626967832,4.7,0.16702430390726392
-67.183,-21.311,5.5,3.0006844626967832,4.7,0.16702430390726392
-66.094,-23.036,4.8,3.0006844626967832,4.7,0.16702430390726392
-66.78,-23.008,5.2,3.0006844626967832,4.7,0.16702430390726392
-70.77,-29.456,5.0,3.0006844626967832,4.7,0.16702430390726392
-68.723,-21.095,4.9,3.0006844626967832,4.7,0.16702430390726392
-68.911,-28.842,5.1,3.0006844626967832,4.7,0.16702430390726392
-69.758,-17.752,6.3,3.0006844626967832,4.7,0.16702430390726392
-68.507,-31.263,4.7,3.0006844626967832,4.7,0.16702430390726392
-69.949,-19.91,4.7,3.0006844626967832,4.7,0.16702430390726392
-70.84,-37.11,5.4,3.0006844626967832,4.7,0.16702430390726392
-66.811,-27.831,5.1,3.0006844626967832,4.7,0.16702430390726392
-66.308,-22.435,5.3,3.0006844626967832,4.7,0.16702430390726392
-67.173,-22.595,5.8,3.0006844626967832,4.7,0.16702430390726392
-71.676,-35.473,4.9,3.0006844626967832,4.7,0.16702430390726392
-66.875,-31.467,5.0,3.0006844626967832,4.7,0.16702430390726392
-68.71,-22.54,5.0,3.0006844626967832,4.7,0.16702430390726392
-67.487,-24.153,5.2,3.0006844626967832,4.7,0.16702430390726392
-68.566,-33.031,5.1,3.0006844626967832,4.7,0.16702430390726392
-67.778,-33.141,5.0,3.0006844626967832,4.7,0.16702430390726392
-67.616,-33.489,4.8,3.0006844626967832,4.7,0.16702430390726392
-70.17,-26.62,4.9,3.0006844626967832,4.7,0.16702430390726392
-66.959,-24.278,5.0,3.0006844626967832,4.7,0.16702430390726392
-66.53,-28.23,5.1,3.0006844626967832,4.7,0.16702430390726392
-69.747,-25.972,4.7,3.0006844626967832,4.7,0.16702430390726392
-69.717,-31.89,5.2,3.0006844626967832,4.7,0.16702430390726392
-68.929,-20.644,5.0,3.0006844626967832,4.7,0.16702430390726392
-66.632,-23.946,4.9,3.0006844626967832,4.7,0.16702430390726392
-67.307,-23.666,4.9,3.0006844626967832,4.7,0.16702430390726392
-69.196,-17.887,4.8,3.0006844626967832,4.7,0.16702430390726392
-69.142,-23.669,4.8,3.0006844626967832,4.7,0.16702430390726392
-69.63,-24.03,4.9,3.0006844626967832,4.7,0.16702430390726392
-69.86,-32.562,4.8,3.0006844626967832,4.7,0.16702430390726392
-69.523,-28.434,4.9,3.0006844626967832,4.7,0.16702430390726392
-70.213,-33.772,5.0,3.0006844626967832,4.7,0.16702430390726392
-68.762,-21.015,4.7,3.0006844626967832,4.7,0.16702430390726392
-68.622,-31.882,5.1,3.0006844626967832,4.7,0.16702430390726392
-68.692,-32.606,5.0,3.0006844626967832,4.7,0.16702430390726392
-70.524,-18.647,4.7,3.0006844626967832,4.7,0.16702430390726392
-69.739,-32.947,4.8,3.0006844626967832,4.7,0.16702430390726392
-67.03,-21.732,4.7,3.0006844626967832,4.7,0.16702430390726392
-69.483,-29.452,5.1,3.0006844626967832,4.7,0.16702430390726392
-70.57,-32.86,5.6,3.0006844626967832,4.7,0.16702430390726392
-68.354,-23.492,5.1,3.0006844626967832,4.7,0.16702430390726392
-66.671,-21.514,5.0,3.0006844626967832,4.7,0.16702430390726392
-69.691,-23.008,4.8,3.0006844626967832,4.7,0.16702430390726392
-67.119,-31.794,4.7,3.0006844626967832,4.7,0.16702430390726392
-68.09,-20.4,5.2,3.0006844626967832,4.7,0.16702430390726392
-69.07,-31.882,5.0,3.0006844626967832,4.7,0.16702430390726392
-67.364,-33.345,4.7,3.0006844626967832,4.7,0.16702430390726392
-69.329,-27.305,4.9,3.0006844626967832,4.7,0.16702430390726392
-69.729,-27.242,5.0,3.0006844626967832,4.7,0.16702430390726392
-68.876,-18.885,5.1,3.0006844626967832,4.7,0.16702430390726392
-67.458,-19.068,5.2,3.0006844626967832,4.7,0.16702430390726392
-67.844,-19.22,4.7,3.0006844626967832,4.7,0.16702430390726392
-67.822,-23.806,5.2,3.0006844626967832,4.7,0.16702430390726392
-69.664,-20.823,5.1,,,
-71.607,-34.816,4.9,,,
-69.951,-20.295,4.0,,,
-66.106,-22.863,5.4,,,
-67.143,-27.981,4.5,,,
-69.46,-24.41,4.8,,,
-68.216,-19.244,4.3,,,
-69.321,-20.135,5.5,,,
-70.04,-32.96,4.5,,,
-69.611,-28.626,4.8,,,
-70.257,-32.166,4.2,,,
-68.805,-24.207,4.0,,,
-71.172,-30.979,4.0,,,
-69.357,-23.475,4.8,,,
-69.007,-25.381,4.6,,,
-70.324,-17.812,4.1,,,
-70.578,-28.298,6.7,,,
-67.516,-28.503,4.9,,,
-67.797,-23.301,4.6,,,
-69.927,-32.555,4.7,,,
-67.97,-22.563,4.1,,,
-69.165,-22.683,5.1,,,
-67.428,-23.509,4.9,,,
-68.277,-24.264,4.2,,,
-66.977,-19.44,4.0,,,
-69.199,-28.066,4.1,,,
-70.136,-27.0,4.9,,,
-68.938,-31.275,4.0,,,
-68.422,-24.982,4.7,,,
-68.502,-22.628,4.5,,,
-66.662,-27.851,5.3,,,
-70.02,-19.949,4.8,,,
-70.197,-19.124,4.7,,,
-68.477,-31.243,5.1,,,
-70.405,-27.619,4.5,,,
-67.488,-21.265,4.1,,,
-67.458,-19.99,5.3,,,
-67.848,-24.417,5.0,,,
-65.95,-21.804,4.6,,,
-66.949,-21.835,4.8,,,
-67.123,-31.602,4.9,,,
-70.395,-31.858,4.4,,,
-71.103,-30.411,5.0,,,
-66.391,-20.083,4.2,,,
-68.668,-23.0,4.0,,,
-68.927,-20.366,4.0,,,
-69.061,-31.004,4.1,,,
-68.418,-21.322,4.2,,,
-67.891,-31.104,4.3,,,
-69.034,-23.243,4.5,,,
-70.016,-25.882,4.6,,,
-69.287,-29.306,5.0,,,
-69.929,-29.297,4.6,,,
-68.238,-31.803,5.1,,,
-68.712,-20.005,5.0,,,
-68.555,-23.633,4.5,,,
-66.328,-21.785,4.1,,,
-71.094,-37.099,4.2,,,
-68.624,-29.38,4.5,,,
-68.093,-29.451,5.0,,,
-70.27,-28.9,4.2,,,
-69.686,-28.99,4.9,,,
-69.186,-19.262,4.1,,,
-71.175,-30.812,4.4,,,
-69.031,-28.97,4.4,,,
-70.77,-34.087,4.0,,,
-70.035,-30.514,4.0,,,
-72.442,-36.545,4.6,,,
-71.925,-36.631,4.6,,,
-68.172,-23.054,4.5,,,
-67.29,-24.11,5.5,,,
-70.865,-18.257,4.0,,,
-69.408,-31.558,4.6,,,
-70.68,-33.493,5.0,,,
-67.579,-20.907,4.8,,,
-69.373,-32.447,5.3,,,
-69.419,-17.3,5.0,,,
-67.198,-27.258,4.9,,,
-70.884,-30.056,4.3,,,
-68.242,-20.246,4.2,,,
-69.334,-23.516,4.7,,,
-68.79,-21.04,5.3,,,
-69.675,-29.834,4.2,,,
-70.304,-29.832,4.2,,,
-67.977,-21.827,4.6,,,
-70.906,-36.838,4.1,,,
-70.92,-17.34,5.1,,,
-70.488,-17.242,4.6,,,
-68.935,-31.516,4.6,,,
-69.423,-30.735,4.7,,,
-71.363,-36.088,5.0,,,
-69.038,-26.09,4.2,,,
-69.846,-25.057,4.0,,,
-68.536,-30.723,4.1,,,
-70.007,-33.864,4.0,,,
-71.304,-39.371,4.6,,,
-69.428,-34.928,5.0,,,
-71.582,-35.562,4.8,,,
-70.7,-32.274,5.0,,,
-68.746,-24.602,4.4,,,
-67.548,-28.917,4.1,,,
-69.737,-20.514,4.0,,,
-67.303,-23.636,4.7,,,
-66.991,-19.435,4.8,,,
-66.171,-19.23,4.7,,,
-69.126,-31.931,4.9,,,
-68.213,-23.563,4.2,,,
-72.698,-37.607,4.0,,,
-69.179,-20.702,4.8,,,
-69.68,-19.39,5.6,,,
-68.863,-24.117,4.2,,,
-68.863,-20.438,4.8,,,
-69.855,-29.451,4.5,,,
-67.872,-23.888,4.7,,,
-68.023,-21.347,4.7,,,
-68.579,-23.026,4.7,,,
-67.613,-21.292,4.3,,,
-67.168,-20.586,5.2,,,
-67.796,-20.581,4.5,,,
-68.52,-28.954,4.9,,,
-68.615,-23.9,4.0,,,
-66.373,-21.49,4.5,,,
-68.97,-23.032,4.9,,,
-68.755,-27.995,4.8,,,
-69.228,-27.981,4.4,,,
-67.326,-21.879,5.0,,,
-67.49,-22.298,4.8,,,
-69.6,-29.061,4.9,,,
-70.575,-34.529,5.1,,,
-68.32,-19.07,4.3,,,
-71.067,-32.885,4.0,,,
-68.957,-19.303,5.0,,,
-69.817,-21.469,4.5,,,
-69.271,-19.61,4.1,,,
-72.475,-37.181,4.6,,,
-68.165,-23.105,4.9,,,
-67.185,-28.088,5.2,,,
-67.54,-28.36,4.6,,,
-71.208,-32.307,4.7,,,
-69.33,-27.486,4.2,,,
-69.862,-33.169,4.3,,,
-67.226,-24.536,5.0,,,
-67.679,-24.459,4.7,,,
-65.854,-22.314,4.8,,,
-66.495,-22.283,5.7,,,
-69.25,-23.68,4.4,,,
-69.628,-24.23,4.0,,,
-68.88,-18.77,4.9,,,
-68.3,-22.57,5.3,,,
-67.126,-21.376,5.1,,,
-68.633,-32.285,4.5,,,
-69.84,-32.805,4.5,,,
-68.85,-25.003,4.7,,,
-69.873,-26.701,4.3,,,
-70.349,-33.604,4.8,,,
-68.842,-22.672,4.8,,,
-69.137,-19.979,5.1,,,
-72.249,-36.887,4.1,,,
-66.69,-20.45,5.0,,,
-70.183,-18.59,4.6,,,
-69.228,-17.552,4.5,,,
-67.889,-20.756,4.1,,,
-67.326,-27.531,4.8,,,
-68.826,-27.462,4.5,,,
-72.073,-36.328,4.7,,,
-69.205,-28.364,4.8,,,
-72.004,-39.29,4.2,,,
-68.029,-24.317,4.1,,,
-69.567,-22.688,4.0,,,
-69.005,-18.038,5.1,,,
-69.692,-31.651,4.1,,,
-69.55,-27.787,4.1,,,
-65.412,-30.923,4.8,,,
-70.941,-36.148,4.1,,,
-69.196,-27.749,4.2,,,
-68.945,-22.09,4.9,,,
-68.449,-17.251,4.0,,,
-67.978,-17.575,4.8,,,
-67.609,-19.748,4.5,,,
-69.084,-25.465,4.3,,,
-69.298,-24.574,5.4,,,
-70.637,-36.573,4.6,,,
-71.012,-35.267,4.8,,,
-69.162,-26.012,4.2,,,
-70.09,-19.597,5.2,,,
-69.29,-31.39,5.1,,,
-68.689,-21.721,4.8,,,
-68.896,-21.206,4.1,,,
-66.962,-28.764,5.2,,,
-70.621,-32.872,5.0,,,
-70.139,-19.048,4.0,,,
-71.673,-38.046,4.5,,,
-68.671,-20.997,4.0,,,
-71.285,-33.901,4.2,,,
-70.06,-33.951,5.0,,,
-68.397,-21.265,5.0,,,
-67.966,-22.168,4.0,,,
-68.777,-23.051,4.7,1.998631074606434,4.4,0.12568034508340753
-67.504,-20.87,4.9,1.998631074606434,4.4,0.12568034508340753
-69.729,-20.989,5.2,1.998631074606434,4.4,0.12568034508340753
-66.561,-27.952,5.2,1.998631074606434,4.4,0.12568034508340753
-67.779,-29.286,4.8,1.998631074606434,4.4,0.12568034508340753
-68.25,-31.27,5.2,1.998631074606434,4.4,0.12568034508340753
-66.629,-21.68,5.0,1.998631074606434,4.4,0.12568034508340753
-72.639,-37.849,4.9,1.998631074606434,4.4,0.12568034508340753
-69.928,-32.484,4.7,1.998631074606434,4.4,0.12568034508340753
-67.403,-22.451,4.9,1.998631074606434,4.4,0.12568034508340753
-69.029,-30.129,4.9,1.998631074606434,4.4,0.12568034508340753
-68.703,-31.298,5.0,1.998631074606434,4.4,0.12568034508340753
-71.617,-34.748,5.6,1.998631074606434,4.4,0.12568034508340753
-67.394,-28.857,4.5,1.998631074606434,4.4,0.12568034508340753
-69.283,-17.401,4.4,1.998631074606434,4.4,0.12568034508340753
-67.344,-19.267,4.4,1.998631074606434,4.4,0.12568034508340753
-70.016,-28.98,4.9,1.998631074606434,4.4,0.12568034508340753
-67.883,-21.224,4.7,1.998631074606434,4.4,0.12568034508340753
-67.95,-28.532,5.1,1.998631074606434,4.4,0.12568034508340753
-65.967,-22.618,4.4,1.998631074606434,4.4,0.12568034508340753
-66.923,-18.97,4.9,1.998631074606434,4.4,0.12568034508340753
-70.411,-33.708,5.0,1.998631074606434,4.4,0.12568034508340753
-69.52,-32.057,5.0,1.998631074606434,4.4,0.12568034508340753
-66.923,-18.073,4.9,1.998631074606434,4.4,0.12568034508340753
-70.494,-17.956,5.0,1.998631074606434,4.4,0.12568034508340753
-69.773,-31.711,4.9,1.998631074606434,4.4,0.12568034508340753
-70.332,-33.149,4.7,1.998631074606434,4.4,0.12568034508340753
-69.23,-23.94,5.1,1.998631074606434,4.4,0.12568034508340753
-70.056,-29.336,4.8,1.998631074606434,4.4,0.12568034508340753
-70.458,-17.527,5.5,1.998631074606434,4.4,0.12568034508340753
-68.801,-24.147,4.4,1.998631074606434,4.4,0.12568034508340753
-70.54,-31.45,5.4,1.998631074606434,4.4,0.12568034508340753
-66.447,-24.535,4.9,1.998631074606434,4.4,0.12568034508340753
-67.0,-24.479,5.1,1.998631074606434,4.4,0.12568034508340753
-70.857,-17.232,4.5,1.998631074606434,4.4,0.12568034508340753
-68.332,-23.41,5.0,1.998631074606434,4.4,0.12568034508340753
-69.091,-22.534,5.2,1.998631074606434,4.4,0.12568034508340753
-69.14,-28.366,4.9,1.998631074606434,4.4,0.12568034508340753
-67.475,-28.27,5.0,1.998631074606434,4.4,0.12568034508340753
-67.555,-33.576,5.0,1.998631074606434,4.4,0.12568034508340753
-67.904,-20.26,5.3,1.998631074606434,4.4,0.12568034508340753
-67.505,-29.831,5.0,1.998631074606434,4.4,0.12568034508340753
-69.595,-19.024,4.7,1.998631074606434,4.4,0.12568034508340753
-67.181,-18.683,4.8,1.998631074606434,4.4,0.12568034508340753
-71.48,-17.46,4.6,1.998631074606434,4.4,0.12568034508340753
-68.82,-23.51,5.5,1.998631074606434,4.4,0.12568034508340753
-67.528,-24.007,5.3,1.998631074606434,4.4,0.12568034508340753
-67.441,-31.937,4.8,1.998631074606434,4.4,0.12568034508340753
-69.928,-20.35,4.6,1.998631074606434,4.4,0.12568034508340753
-71.016,-36.167,4.8,1.998631074606434,4.4,0.12568034508340753
-72.64,-40.405,4.9,1.998631074606434,4.4,0.12568034508340753
-71.791,-35.201,4.8,1.998631074606434,4.4,0.12568034508340753
-71.12,-30.667,4.9,1.998631074606434,4.4,0.12568034508340753
-69.23,-25.15,5.0,1.998631074606434,4.4,0.12568034508340753
-68.55,-21.648,4.8,1.998631074606434,4.4,0.12568034508340753
-71.549,-36.659,4.6,1.998631074606434,4.4,0.12568034508340753
-67.557,-24.602,4.8,1.998631074606434,4.4,0.12568034508340753
-68.769,-21.049,5.1,1.998631074606434,4.4,0.12568034508340753
-70.474,-31.889,4.7,1.998631074606434,4.4,0.12568034508340753
-69.266,-31.297,4.5,1.998631074606434,4.4,0.12568034508340753
-66.948,-21.543,4.6,1.998631074606434,4.4,0.12568034508340753
-71.124,-30.172,4.5,1.998631074606434,4.4,0.12568034508340753
-69.107,-27.473,4.6,1.998631074606434,4.4,0.12568034508340753
-70.032,-17.77,4.9,1.998631074606434,4.4,0.12568034508340753
-69.941,-27.978,5.2,1.998631074606434,4.4,0.12568034508340753
-69.127,-19.703,4.9,1.998631074606434,4.4,0.12568034508340753
-70.922,-34.871,4.6,1.998631074606434,4.4,0.12568034508340753
-70.81,-30.98,5.4,1.998631074606434,4.4,0.12568034508340753
-67.5,-28.64,4.4,1.998631074606434,4.4,0.12568034508340753
-66.539,-19.557,4.5,1.998631074606434,4.4,0.12568034508340753
-68.77,-20.29,5.6,1.998631074606434,4.4,0.12568034508340753
-70.825,-37.063,4.9,1.998631074606434,4.4,0.12568034508340753
-71.16,-31.806,4.7,1.998631074606434,4.4,0.12568034508340753
-69.356,-17.651,5.1,1.998631074606434,4.4,0.12568034508340753
-68.688,-28.948,4.8,1.998631074606434,4.4,0.12568034508340753
-67.841,-31.424,4.7,1.998631074606434,4.4,0.12568034508340753
-72.26,-36.399,4.5,1.998631074606434,4.4,0.12568034508340753
-69.086,-21.762,4.8,1.998631074606434,4.4,0.12568034508340753
-69.358,-32.253,4.9,1.998631074606434,4.4,0.12568034508340753
-68.15,-24.556,4.9,1.998631074606434,4.4,0.12568034508340753
-69.23,-20.13,5.6,1.998631074606434,4.4,0.12568034508340753
-67.402,-22.298,5.0,1.998631074606434,4.4,0.12568034508340753
-70.581,-33.381,4.8,1.998631074606434,4.4,0.12568034508340753
-69.435,-23.453,4.8,1.998631074606434,4.4,0.12568034508340753
-69.494,-24.337,4.8,1.998631074606434,4.4,0.12568034508340753
-68.337,-29.717,4.6,1.998631074606434,4.4,0.12568034508340753
-67.003,-20.627,5.0,1.998631074606434,4.4,0.12568034508340753
-67.889,-28.499,5.0,1.998631074606434,4.4,0.12568034508340753
-69.06,-24.113,4.8,1.998631074606434,4.4,0.12568034508340753
-70.12,-33.275,4.7,1.998631074606434,4.4,0.12568034508340753
-70.065,-18.748,4.7,1.998631074606434,4.4,0.12568034508340753
-67.337,-28.245,4.8,1.998631074606434,4.4,0.12568034508340753
-66.72,-23.78,6.2,1.998631074606434,4.4,0.12568034508340753
-69.407,-19.16,4.4,1.998631074606434,4.4,0.12568034508340753
