longitude,latitude,mag,tc_years,mc_window,weight
-71.0,-29.0,6.9,49.99863107460644,6.8,1.2619492392475657
-70.092,-18.358,6.9,49.99863107460644,6.8,1.2619492392475657
-67.0,-18.0,7.1,49.99863107460644,6.8,1.2619492392475657
-72.887,-37.911,7.0,49.99863107460644,6.8,1.2619492392475657
-73.0,-39.102,7.4,49.99863107460644,6.8,1.2619492392475657
-66.0,-18.0,6.9,49.99863107460644,6.8,1.2619492392475657
-66.0,-19.5,6.9,49.99863107460644,6.8,1.2619492392475657
-67.0,-21.0,6.8,49.99863107460644,6.8,1.2619492392475657
-71.5,-36.0,6.2,25.99863107460644,6.0,0.3846356360572872
-71.1,-17.2,6.2,25.99863107460644,6.0,0.3846356360572872
-65.0,-20.5,6.0,25.99863107460644,6.0,0.3846356360572872
-70.9,-17.2,6.2,25.99863107460644,6.0,0.3846356360572872
-70.155,-26.406,6.4,25.99863107460644,6.0,0.3846356360572872
-65.0,-20.0,6.0,25.99863107460644,6.0,0.3846356360572872
-65.0,-23.5,6.1,25.99863107460644,6.0,0.3846356360572872
-73.367,-41.579,6.3,25.99863107460644,6.0,0.3846356360572872
-73.613,-43.642,6.1,25.99863107460644,6.0,0.3846356360572872
-72.917,-38.154,7.2,25.99863107460644,6.0,0.3846356360572872
-72.813,-39.071,6.9,25.99863107460644,6.0,0.3846356360572872
-73.836,-42.904,6.1,25.99863107460644,6.0,0.3846356360572872
-69.5,-24.4,6.8,25.99863107460644,6.0,0.3846356360572872
-69.4,-18.9,6.6,25.99863107460644,6.0,0.3846356360572872
-70.5,-17.1,6.5,25.99863107460644,6.0,0.3846356360572872
-69.962,-22.691,6.3,25.99863107460644,6.0,0.3846356360572872
-72.695,-38.231,6.3,25.99863107460644,6.0,0.3846356360572872
-70.55,-25.494,7.7,25.99863107460644,6.0,0.3846356360572872
-72.912,-38.152,7.8,25.99863107460644,6.0,0.3846356360572872
-66.589,-22.648,6.6,25.99863107460644,6.0,0.3846356360572872
-66.231,-27.75,5.6,10.001368925393566,5.3,0.1994989215829135
-74.727,-39.999,6.4,10.001368925393566,5.3,0.1994989215829135
-66.301,-21.327,5.9,10.001368925393566,5.3,0.1994989215829135
-71.307,-17.853,5.5,10.001368925393566,5.3,0.1994989215829135
-69.21,-19.947,5.9,10.001368925393566,5.3,0.1994989215829135
-70.599,-25.12,5.4,10.001368925393566,5.3,0.1994989215829135
-69.71,-23.51,5.9,10.001368925393566,5.3,0.1994989215829135
-69.789,-21.951,5.6,10.001368925393566,5.3,0.1994989215829135
-72.463,-36.286,6.1,10.001368925393566,5.3,0.1994989215829135
-69.022,-22.301,5.9,10.001368925393566,5.3,0.1994989215829135
-72.247,-39.009,5.5,10.001368925393566,5.3,0.1994989215829135
-71.362,-17.945,5.4,10.001368925393566,5.3,0.1994989215829135
-68.976,-22.882,5.7,10.001368925393566,5.3,0.1994989215829135
-69.685,-18.797,5.4,10.001368925393566,5.3,0.1994989215829135
-69.898,-20.457,5.5,10.001368925393566,5.3,0.1994989215829135
-73.103,-39.664,5.8,10.001368925393566,5.3,0.1994989215829135
-71.81,-33.96,6.4,10.001368925393566,5.3,0.1994989215829135
-69.562,-20.823,5.4,10.001368925393566,5.3,0.1994989215829135
-71.762,-17.812,5.5,10.001368925393566,5.3,0.1994989215829135
-70.83,-20.84,5.7,10.001368925393566,5.3,0.1994989215829135
-73.45,-41.97,5.6,10.001368925393566,5.3,0.1994989215829135
-71.999,-17.053,5.5,10.001368925393566,5.3,0.1994989215829135
-70.322,-19.363,5.5,10.001368925393566,5.3,0.1994989215829135
-69.591,-18.913,5.7,10.001368925393566,5.3,0.1994989215829135
-70.355,-26.116,5.9,10.001368925393566,5.3,0.1994989215829135
-71.01,-32.641,5.4,10.001368925393566,5.3,0.1994989215829135
-72.08,-33.43,6.3,10.001368925393566,5.3,0.1994989215829135
-71.42,-34.18,5.4,10.001368925393566,5.3,0.1994989215829135
-70.241,-18.097,5.4,10.001368925393566,5.3,0.1994989215829135
-74.3,-41.0,5.3,10.001368925393566,5.3,0.1994989215829135
-69.383,-21.444,5.4,10.001368925393566,5.3,0.1994989215829135
-73.402,-42.049,5.6,11.000684462696784,5.2,0.144072234580991
-69.7,-23.53,6.0,11.000684462696784,5.2,0.144072234580991
-70.031,-24.055,6.2,11.000684462696784,5.2,0.144072234580991
-71.09,-20.01,5.3,11.000684462696784,5.2,0.144072234580991
-72.13,-18.22,5.6,11.000684462696784,5.2,0.144072234580991
-72.546,-40.542,5.6,11.000684462696784,5.2,0.144072234580991
-70.052,-19.185,6.4,11.000684462696784,5.2,0.144072234580991
-70.633,-28.162,6.1,11.000684462696784,5.2,0.144072234580991
-70.56,-24.93,7.2,11.000684462696784,5.2,0.144072234580991
-73.274,-41.467,5.2,11.000684462696784,5.2,0.144072234580991
-70.906,-17.051,5.3,11.000684462696784,5.2,0.144072234580991
-71.57,-32.92,6.1,11.000684462696784,5.2,0.144072234580991
-69.957,-22.209,5.5,11.000684462696784,5.2,0.144072234580991
-71.18,-26.72,6.1,11.000684462696784,5.2,0.144072234580991
-72.808,-37.869,5.2,11.000684462696784,5.2,0.144072234580991
-73.441,-42.186,5.2,11.000684462696784,5.2,0.144072234580991
-70.21,-23.52,5.5,11.000684462696784,5.2,0.144072234580991
-73.303,-36.985,6.3,11.000684462696784,5.2,0.144072234580991
-71.67,-18.33,5.6,11.000684462696784,5.2,0.144072234580991
-72.532,-35.288,5.2,11.000684462696784,5.2,0.144072234580991
-70.408,-23.025,5.2,11.000684462696784,5.2,0.144072234580991
-72.789,-40.116,5.3,11.000684462696784,5.2,0.144072234580991
-69.393,-21.413,5.4,11.000684462696784,5.2,0.144072234580991
-71.594,-35.17,5.4,11.000684462696784,5.2,0.144072234580991
-72.35,-17.32,5.2,11.000684462696784,5.2,0.144072234580991
-69.85,-23.05,5.2,11.000684462696784,5.2,0.144072234580991
-73.247,-39.892,5.7,11.000684462696784,5.2,0.144072234580991
-72.743,-41.265,5.6,11.000684462696784,5.2,0.144072234580991
-70.885,-18.426,5.4,11.000684462696784,5.2,0.144072234580991
-69.7,-19.013,5.5,11.000684462696784,5.2,0.144072234580991
-68.939,-22.728,5.2,11.000684462696784,5.2,0.144072234580991
-72.81,-36.33,5.5,11.000684462696784,5.2,0.144072234580991
-69.99,-25.191,5.2,11.000684462696784,5.2,0.144072234580991
-70.715,-24.359,6.2,11.000684462696784,5.2,0.144072234580991
-69.988,-24.077,5.2,11.000684462696784,5.2,0.144072234580991
-70.74,-23.0,6.1,11.000684462696784,5.2,0.144072234580991
-70.12,-22.39,5.6,11.000684462696784,5.2,0.144072234580991
-70.029,-18.237,5.4,11.000684462696784,5.2,0.144072234580991
-69.553,-24.562,5.0,4.999315537303217,5.0,0.2000273822562979
-71.557,-29.274,5.8,4.999315537303217,5.0,0.2000273822562979
-72.92,-41.99,5.2,4.999315537303217,5.0,0.2000273822562979
-69.616,-19.673,5.4,4.999315537303217,5.0,0.2000273822562979
-69.59,-17.97,5.2,4.999315537303217,5.0,0.2000273822562979
-71.695,-31.305,4.7,5.9986310746064335,4.7,0.08355026795178516
-71.38,-28.831,4.8,5.9986310746064335,4.7,0.08355026795178516
-69.6,-20.23,5.6,5.9986310746064335,4.7,0.08355026795178516
-73.364,-37.174,5.0,5.9986310746064335,4.7,0.08355026795178516
-73.311,-38.652,5.3,5.9986310746064335,4.7,0.08355026795178516
-70.144,-17.323,5.3,5.9986310746064335,4.7,0.08355026795178516
-71.054,-17.72,5.4,5.9986310746064335,4.7,0.08355026795178516
-71.818,-17.498,6.7,5.9986310746064335,4.7,0.08355026795178516
-71.177,-29.662,4.7,5.9986310746064335,4.7,0.08355026795178516
-69.528,-21.135,5.0,5.9986310746064335,4.7,0.08355026795178516
-69.244,-19.893,4.9,5.9986310746064335,4.7,0.08355026795178516
-69.243,-19.541,4.9,5.9986310746064335,4.7,0.08355026795178516
-72.061,-35.531,5.0,5.9986310746064335,4.7,0.08355026795178516
-70.794,-17.289,5.2,5.9986310746064335,4.7,0.08355026795178516
-71.659,-33.777,5.0,5.9986310746064335,4.7,0.08355026795178516
-70.64,-25.575,4.9,5.9986310746064335,4.7,0.08355026795178516
-72.411,-17.019,5.2,5.9986310746064335,4.7,0.08355026795178516
-72.72,-38.307,4.7,5.9986310746064335,4.7,0.08355026795178516
-70.777,-27.741,4.8,5.9986310746064335,4.7,0.08355026795178516
-71.431,-30.812,5.0,5.9986310746064335,4.7,0.08355026795178516
-71.085,-17.276,5.0,5.9986310746064335,4.7,0.08355026795178516
-68.529,-34.778,5.0,5.9986310746064335,4.7,0.08355026795178516
-69.846,-19.131,4.8,5.9986310746064335,4.7,0.08355026795178516
-71.916,-30.534,4.7,5.9986310746064335,4.7,0.08355026795178516
-69.625,-21.219,5.0,5.9986310746064335,4.7,0.08355026795178516
-70.285,-19.301,4.7,5.9986310746064335,4.7,0.08355026795178516
-70.183,-28.204,5.0,5.9986310746064335,4.7,0.08355026795178516
-66.252,-22.161,4.7,5.9986310746064335,4.7,0.08355026795178516
-70.56,-17.28,5.7,5.9986310746064335,4.7,0.08355026795178516
-71.718,-30.723,5.4,5.9986310746064335,4.7,0.08355026795178516
-70.227,-17.941,5.2,5.9986310746064335,4.7,0.08355026795178516
-69.874,-18.596,5.4,5.9986310746064335,4.7,0.08355026795178516
-70.421,-20.569,5.1,5.9986310746064335,4.7,0.08355026795178516
-66.655,-24.035,4.7,5.9986310746064335,4.7,0.08355026795178516
-73.155,-38.854,6.1,5.9986310746064335,4.7,0.08355026795178516
-71.025,-18.25,5.3,5.9986310746064335,4.7,0.08355026795178516
-70.472,-18.41,4.8,5.9986310746064335,4.7,0.08355026795178516
-69.842,-18.271,4.7,5.9986310746064335,4.7,0.08355026795178516
-70.667,-28.331,4.8,5.9986310746064335,4.7,0.08355026795178516
-73.24,-38.06,5.3,5.9986310746064335,4.7,0.08355026795178516
-69.152,-25.035,5.2,5.9986310746064335,4.7,0.08355026795178516
-69.749,-27.047,5.0,5.9986310746064335,4.7,0.08355026795178516
-72.367,-35.889,4.7,5.9986310746064335,4.7,0.08355026795178516
-74.313,-42.653,5.2,5.9986310746064335,4.7,0.08355026795178516
-70.524,-20.257,4.8,5.9986310746064335,4.7,0.08355026795178516
-66.631,-24.215,4.7,5.9986310746064335,4.7,0.08355026795178516
-71.398,-30.553,4.8,5.9986310746064335,4.7,0.08355026795178516
-70.757,-25.217,5.4,5.9986310746064335,4.7,0.08355026795178516
-71.414,-17.673,5.3,5.9986310746064335,4.7,0.08355026795178516
-71.83,-30.819,4.7,5.9986310746064335,4.7,0.08355026795178516
-73.003,-35.499,4.8,5.9986310746064335,4.7,0.08355026795178516
-69.933,-22.606,4.8,5.9986310746064335,4.7,0.08355026795178516
-70.44,-17.44,4.7,5.9986310746064335,4.7,0.08355026795178516
-73.87,-42.303,5.2,5.9986310746064335,4.7,0.08355026795178516
-69.99,-19.322,5.3,5.9986310746064335,4.7,0.08355026795178516
-71.02,-17.195,4.7,5.9986310746064335,4.7,0.08355026795178516
-71.199,-27.291,5.0,5.9986310746064335,4.7,0.08355026795178516
-71.137,-18.383,4.8,5.9986310746064335,4.7,0.08355026795178516
-68.982,-23.546,4.8,5.9986310746064335,4.7,0.08355026795178516
-71.251,-17.782,4.9,5.9986310746064335,4.7,0.08355026795178516
-69.24,-19.52,4.7,5.9986310746064335,4.7,0.08355026795178516
-72.179,-36.466,4.8,5.9986310746064335,4.7,0.08355026795178516
-69.974,-25.441,4.7,5.9986310746064335,4.7,0.08355026795178516
-66.406,-23.195,5.1,3.0006844626967832,4.7,0.16702430390726392
-70.48,-19.85,5.5,3.0006844626967832,4.7,0.16702430390726392
-71.996,-31.606,5.0,3.0006844626967832,4.7,0.16702430390726392
-71.897,-30.834,4.8,3.0006844626967832,4.7,0.16702430390726392
-71.451,-32.404,5.6,3.0006844626967832,4.7,0.16702430390726392
-66.4,-24.097,4.8,3.0006844626967832,4.7,0.16702430390726392
-74.088,-41.96,4.7,3.0006844626967832,4.7,0.16702430390726392
-70.623,-17.185,5.3,3.0006844626967832,4.7,0.16702430390726392
-69.793,-17.217,4.8,3.0006844626967832,4.7,0.16702430390726392
-70.126,-17.008,4.8,3.0006844626967832,4.7,0.16702430390726392
-70.311,-25.966,5.1,3.0006844626967832,4.7,0.16702430390726392
-70.261,-27.876,4.7,3.0006844626967832,4.7,0.16702430390726392
-70.241,-22.916,5.0,3.0006844626967832,4.7,0.16702430390726392
-69.62,-22.419,4.7,3.0006844626967832,4.7,0.16702430390726392
-70.92,-23.06,5.9,3.0006844626967832,4.7,0.16702430390726392
-70.213,-17.563,5.5,3.0006844626967832,4.7,0.16702430390726392
-69.75,-23.256,5.0,3.0006844626967832,4.7,0.16702430390726392
-74.069,-43.028,4.9,3.0006844626967832,4.7,0.16702430390726392
-69.89,-25.892,4.9,3.0006844626967832,4.7,0.16702430390726392
-72.361,-35.989,4.9,3.0006844626967832,4.7,0.16702430390726392
-73.11,-42.804,4.8,3.0006844626967832,4.7,0.16702430390726392
-70.228,-22.608,5.1,3.0006844626967832,4.7,0.16702430390726392
-69.56,-20.41,5.75,3.0006844626967832,4.7,0.16702430390726392
-65.825,-22.729,4.7,3.0006844626967832,4.7,0.16702430390726392
-70.408,-19.515,5.4,3.0006844626967832,4.7,0.16702430390726392
-69.27,-19.568,5.4,3.0006844626967832,4.7,0.16702430390726392
-65.927,-28.334,4.7,3.0006844626967832,4.7,0.16702430390726392
-73.006,-38.249,4.8,3.0006844626967832,4.7,0.16702430390726392
-74.967,-39.634,5.9,3.0006844626967832,4.7,0.16702430390726392
-69.418,-21.53,4.9,3.0006844626967832,4.7,0.16702430390726392
-72.136,-36.72,5.3,3.0006844626967832,4.7,0.16702430390726392
-71.745,-35.003,5.2,3.0006844626967832,4.7,0.16702430390726392
-71.223,-35.064,4.9,3.0006844626967832,4.7,0.16702430390726392
-71.843,-33.481,5.4,3.0006844626967832,4.7,0.16702430390726392
-72.656,-37.162,5.3,3.0006844626967832,4.7,0.16702430390726392
-73.204,-37.381,5.2,3.0006844626967832,4.7,0.16702430390726392
-71.529,-35.455,5.4,3.0006844626967832,4.7,0.16702430390726392
-73.144,-36.451,6.2,3.0006844626967832,4.7,0.16702430390726392
-70.703,-31.36,4.9,3.0006844626967832,4.7,0.16702430390726392
-72.965,-37.775,5.2,3.0006844626967832,4.7,0.16702430390726392
-72.75,-35.22,5.6,3.0006844626967832,4.7,0.16702430390726392
-72.167,-36.041,5.2,3.0006844626967832,4.7,0.16702430390726392
-72.014,-35.61,5.2,3.0006844626967832,4.7,0.16702430390726392
-70.67,-28.419,4.7,3.0006844626967832,4.7,0.16702430390726392
-73.711,-36.845,5.5,3.0006844626967832,4.7,0.16702430390726392
-73.24,-38.331,5.2,3.0006844626967832,4.7,0.16702430390726392
-71.764,-32.676,5.1,3.0006844626967832,4.7,0.16702430390726392
-73.223,-35.849,5.2,3.0006844626967832,4.7,0.16702430390726392
-71.79,-34.32,7.0,3.0006844626967832,4.7,0.16702430390726392
-72.385,-38.124,5.2,3.0006844626967832,4.7,0.16702430390726392
-73.471,-37.815,4.8,3.0006844626967832,4.7,0.16702430390726392
-72.615,-35.847,5.1,3.0006844626967832,4.7,0.16702430390726392
-72.22,-34.87,5.1,3.0006844626967832,4.7,0.16702430390726392
-69.626,-19.644,5.0,3.0006844626967832,4.7,0.16702430390726392
-67.637,-31.897,4.9,3.0006844626967832,4.7,0.16702430390726392
-71.133,-31.148,4.8,3.0006844626967832,4.7,0.16702430390726392
-69.988,-21.562,5.2,3.0006844626967832,4.7,0.16702430390726392
-69.992,-17.014,5.1,3.0006844626967832,4.7,0.16702430390726392
-73.078,-39.009,4.8,3.0006844626967832,4.7,0.16702430390726392
-71.655,-17.472,4.7,3.0006844626967832,4.7,0.16702430390726392
-70.602,-30.689,4.8,3.0006844626967832,4.7,0.16702430390726392
-73.767,-37.363,5.1,3.0006844626967832,4.7,0.16702430390726392
-72.562,-36.13,5.1,3.0006844626967832,4.7,0.16702430390726392
-69.793,-25.06,5.6,3.0006844626967832,4.7,0.16702430390726392
-73.448,-37.73,5.0,3.0006844626967832,4.7,0.16702430390726392
-71.128,-29.689,4.9,3.0006844626967832,4.7,0.16702430390726392
-71.269,-17.548,4.8,3.0006844626967832,4.7,0.16702430390726392
-74.03,-38.373,6.9,3.0006844626967832,4.7,0.16702430390726392
-72.871,-38.756,5.0,3.0006844626967832,4.7,0.16702430390726392
-71.907,-37.692,5.2,3.0006844626967832,4.7,0.16702430390726392
-67.284,-27.307,5.0,3.0006844626967832,4.7,0.16702430390726392
-70.557,-31.598,4.8,3.0006844626967832,4.7,0.16702430390726392
-71.783,-32.659,4.9,3.0006844626967832,4.7,0.16702430390726392
-71.54,-35.65,5.2,3.0006844626967832,4.7,0.16702430390726392
-72.078,-35.569,5.2,3.0006844626967832,4.7,0.16702430390726392
-72.601,-35.711,4.9,3.0006844626967832,4.7,0.16702430390726392
-71.784,-32.193,4.7,3.0006844626967832,4.7,0.16702430390726392
-70.344,-23.89,4.7,3.0006844626967832,4.7,0.16702430390726392
-69.376,-23.981,5.2,3.0006844626967832,4.7,0.16702430390726392
-70.78,-26.708,4.9,3.0006844626967832,4.7,0.16702430390726392
-69.964,-27.499,4.8,3.0006844626967832,4.7,0.16702430390726392
-72.229,-36.835,4.8,3.0006844626967832,4.7,0.16702430390726392
-70.38,-28.864,4.9,3.0006844626967832,4.7,0.16702430390726392
-70.169,-25.536,4.7,3.0006844626967832,4.7,0.16702430390726392
-69.724,-26.327,4.8,3.0006844626967832,4.7,0.16702430390726392
-71.195,-27.898,6.1,3.0006844626967832,4.7,0.16702430390726392
-69.27,-25.205,5.1,3.0006844626967832,4.7,0.16702430390726392
-71.359,-32.902,4.8,3.0006844626967832,4.7,0.16702430390726392
-71.659,-31.952,5.0,3.0006844626967832,4.7,0.16702430390726392
-65.897,-22.518,4.8,3.0006844626967832,4.7,0.16702430390726392
-72.966,-35.731,4.9,3.0006844626967832,4.7,0.16702430390726392
-70.221,-19.154,4.7,3.0006844626967832,4.7,0.16702430390726392
-71.169,-30.964,5.2,3.0006844626967832,4.7,0.16702430390726392
-70.238,-22.239,5.0,3.0006844626967832,4.7,0.16702430390726392
-70.489,-23.122,5.1,3.0006844626967832,4.7,0.16702430390726392
-71.82,-32.824,5.0,3.0006844626967832,4.7,0.16702430390726392
-72.223,-35.523,5.1,3.0006844626967832,4.7,0.16702430390726392
-71.093,-17.397,4.8,3.0006844626967832,4.7,0.16702430390726392
-72.266,-34.605,4.8,3.0006844626967832,4.7,0.16702430390726392
-70.093,-25.925,4.9,3.0006844626967832,4.7,0.16702430390726392
-69.71,-21.51,5.0,3.0006844626967832,4.7,0.16702430390726392
-70.42,-17.844,5.0,3.0006844626967832,4.7,0.16702430390726392
-72.862,-38.932,5.2,3.0006844626967832,4.7,0.16702430390726392
-70.742,-31.75,4.9,3.0006844626967832,4.7,0.16702430390726392
-71.121,-29.473,5.4,,,
-72.767,-37.27,4.9,,,
-71.859,-35.932,4.0,,,
-71.51,-31.031,4.2,,,
-70.083,-28.305,4.8,,,
-72.878,-35.576,4.5,,,
-72.583,-36.156,4.4,,,
-70.29,-19.839,4.1,,,
-71.694,-34.96,4.4,,,
-72.007,-34.311,4.3,,,
-71.901,-32.451,4.2,,,
-72.151,-34.001,4.0,,,
-71.026,-31.284,4.0,,,
-70.764,-25.375,4.0,,,
-65.951,-20.114,4.5,,,
-71.433,-33.947,4.1,,,
-71.573,-30.922,4.4,,,
-71.482,-28.984,4.9,,,
-66.448,-24.106,5.1,,,
-71.398,-32.016,4.0,,,
-69.525,-26.174,5.0,,,
-71.852,-32.689,4.8,,,
-72.0,-30.722,4.0,,,
-70.13,-17.058,4.3,,,
-71.598,-29.828,4.9,,,
-73.46,-41.247,4.0,,,
-72.786,-35.685,4.0,,,
-72.58,-34.719,4.1,,,
-71.582,-17.094,4.8,,,
-71.571,-35.004,4.0,,,
-69.933,-26.74,4.8,,,
-70.161,-19.357,4.7,,,
-71.152,-17.637,5.1,,,
-70.602,-30.382,4.0,,,
-72.117,-34.707,4.7,,,
-72.727,-35.23,4.1,,,
-66.901,-26.928,4.3,,,
-70.586,-25.679,4.0,,,
-73.97,-37.337,4.8,,,
-73.596,-36.77,4.1,,,
-65.81,-27.406,4.1,,,
-66.177,-32.902,4.0,,,
-71.048,-18.526,4.2,,,
-70.787,-27.687,4.0,,,
-71.705,-32.612,4.2,,,
-72.009,-30.681,4.0,,,
-70.697,-18.711,4.1,,,
-71.953,-30.316,4.0,,,
-73.452,-38.661,4.7,,,
-70.034,-24.622,4.0,,,
-69.932,-23.404,4.4,,,
-72.436,-37.178,4.5,,,
-71.669,-30.542,4.5,,,
-70.155,-25.635,4.0,,,
-71.816,-32.234,4.0,,,
-71.86,-34.875,4.3,,,
-71.322,-33.939,4.7,,,
-73.442,-36.933,4.0,,,
-69.58,-21.48,5.0,1.998631074606434,4.4,0.12568034508340753
-71.283,-35.118,4.8,1.998631074606434,4.4,0.12568034508340753
-72.015,-33.62,4.7,1.998631074606434,4.4,0.12568034508340753
-72.122,-33.067,4.5,1.998631074606434,4.4,0.12568034508340753
-71.422,-28.751,5.0,1.998631074606434,4.4,0.12568034508340753
-70.92,-19.94,6.7,1.998631074606434,4.4,0.12568034508340753
-70.812,-19.357,4.9,1.998631074606434,4.4,0.12568034508340753
-70.111,-19.446,5.1,1.998631074606434,4.4,0.12568034508340753
-70.491,-20.589,6.7,1.998631074606434,4.4,0.12568034508340753
-71.427,-29.8,4.6,1.998631074606434,4.4,0.12568034508340753
-69.47,-20.45,4.5,1.998631074606434,4.4,0.12568034508340753
-69.543,-22.615,4.4,1.998631074606434,4.4,0.12568034508340753
-71.77,-32.562,4.7,1.998631074606434,4.4,0.12568034508340753
-70.859,-30.165,4.4,1.998631074606434,4.4,0.12568034508340753
-70.564,-30.745,5.1,1.998631074606434,4.4,0.12568034508340753
-70.446,-24.233,4.4,1.998631074606434,4.4,0.12568034508340753
-72.136,-36.002,4.6,1.998631074606434,4.4,0.12568034508340753
-70.066,-23.759,4.4,1.998631074606434,4.4,0.12568034508340753
-70.994,-27.44,4.4,1.998631074606434,4.4,0.12568034508340753
-71.713,-30.166,4.5,1.998631074606434,4.4,0.12568034508340753
-66.739,-24.34,4.5,1.998631074606434,4.4,0.12568034508340753
-70.61,-21.751,4.6,1.998631074606434,4.4,0.12568034508340753
-71.279,-27.243,4.4,1.998631074606434,4.4,0.12568034508340753
-72.64,-34.234,4.9,1.998631074606434,4.4,0.12568034508340753
-72.726,-41.291,5.0,1.998631074606434,4.4,0.12568034508340753
-71.126,-29.549,4.8,1.998631074606434,4.4,0.12568034508340753
-70.307,-30.636,4.6,1.998631074606434,4.4,0.12568034508340753
-69.335,-19.578,4.8,1.998631074606434,4.4,0.12568034508340753
-71.41,-18.412,4.7,1.998631074606434,4.4,0.12568034508340753
-70.513,-17.938,4.4,1.998631074606434,4.4,0.12568034508340753
-72.517,-38.583,4.5,1.998631074606434,4.4,0.12568034508340753
-69.763,-25.689,4.7,1.998631074606434,4.4,0.12568034508340753
-71.197,-30.227,5.6,1.998631074606434,4.4,0.12568034508340753
-71.221,-32.155,4.9,1.998631074606434,4.4,0.12568034508340753
-71.932,-31.918,6.1,1.998631074606434,4.4,0.12568034508340753
-71.732,-32.549,4.5,1.998631074606434,4.4,0.12568034508340753
-71.693,-31.172,6.4,1.998631074606434,4.4,0.12568034508340753
-71.465,-29.703,4.4,1.998631074606434,4.4,0.12568034508340753
-70.376,-29.784,5.3,1.998631074606434,4.4,0.12568034508340753
-71.683,-30.03,4.7,1.998631074606434,4.4,0.12568034508340753
-71.723,-17.403,4.5,1.998631074606434,4.4,0.12568034508340753
-71.515,-18.501,4.6,1.998631074606434,4.4,0.12568034508340753
-69.26,-23.05,4.4,1.998631074606434,4.4,0.12568034508340753
-70.103,-24.223,4.4,1.998631074606434,4.4,0.12568034508340753
-73.417,-38.808,4.9,1.998631074606434,4.4,0.12568034508340753
-70.0,-29.47,4.5,1.998631074606434,4.4,0.12568034508340753
-66.817,-27.382,4.8,1.998631074606434,4.4,0.12568034508340753
-70.149,-18.408,5.1,1.998631074606434,4.4,0.12568034508340753
-67.115,-32.788,4.7,6.997675171749436,4.4,0.03589601360249485
-69.621,-21.272,4.5,6.997675171749436,4.4,0.03589601360249485
-72.389,-37.025,4.5,6.997675171749436,4.4,0.03589601360249485
-69.747,-20.737,4.9,6.997675171749436,4.4,0.03589601360249485
-71.035,-24.678,4.5,6.997675171749436,4.4,0.03589601360249485
-71.892,-30.402,4.6,6.997675171749436,4.4,0.03589601360249485
-70.371,-17.817,4.4,6.997675171749436,4.4,0.03589601360249485
-69.91,-17.42,4.5,6.997675171749436,4.4,0.03589601360249485
-69.366,-18.929,4.4,6.997675171749436,4.4,0.03589601360249485
-71.341,-30.691,4.7,6.997675171749436,4.4,0.03589601360249485
-71.854,-29.973,4.8,6.997675171749436,4.4,0.03589601360249485
-71.261,-17.507,4.6,6.997675171749436,4.4,0.03589601360249485
-71.891,-35.613,4.8,6.997675171749436,4.4,0.03589601360249485
-68.726,-33.469,4.5,6.997675171749436,4.4,0.03589601360249485
-71.774,-32.568,5.2,6.997675171749436,4.4,0.03589601360249485
-70.449,-17.937,4.6,6.997675171749436,4.4,0.03589601360249485
-70.633,-31.753,5.1,6.997675171749436,4.4,0.03589601360249485
-73.817,-39.729,4.4,6.997675171749436,4.4,0.03589601360249485
-70.109,-19.521,4.4,6.997675171749436,4.4,0.03589601360249485
-71.608,-30.398,4.9,6.997675171749436,4.4,0.03589601360249485
-70.71,-25.642,4.4,6.997675171749436,4.4,0.03589601360249485
-72.201,-37.431,4.4,6.997675171749436,4.4,0.03589601360249485
-72.202,-33.969,4.6,6.997675171749436,4.4,0.03589601360249485
-70.125,-19.876,4.7,6.997675171749436,4.4,0.03589601360249485
-71.905,-32.071,4.4,6.997675171749436,4.4,0.03589601360249485
-71.27,-33.47,4.8,6.997675171749436,4.4,0.03589601360249485
-71.078,-18.615,4.5,6.997675171749436,4.4,0.03589601360249485
-70.163,-18.91,4.5,6.997675171749436,4.4,0.03589601360249485
-73.47,-38.981,4.8,6.997675171749436,4.4,0.03589601360249485
-74.233,-40.253,4.5,6.997675171749436,4.4,0.03589601360249485
-72.008,-32.792,4.9,6.997675171749436,4.4,0.03589601360249485
-69.25,-21.37,5.2,6.997675171749436,4.4,0.03589601360249485
-70.593,-23.126,4.6,6.997675171749436,4.4,0.03589601360249485
-71.391,-18.475,4.6,6.997675171749436,4.4,0.03589601360249485
-71.866,-31.878,4.8,6.997675171749436,4.4,0.03589601360249485
-70.247,-25.517,4.4,6.997675171749436,4.4,0.03589601360249485
-65.429,-25.601,4.7,6.997675171749436,4.4,0.03589601360249485
-71.544,-32.303,4.4,6.997675171749436,4.4,0.03589601360249485
-72.962,-36.008,5.1,6.997675171749436,4.4,0.03589601360249485
-70.241,-19.808,5.2,6.997675171749436,4.4,0.03589601360249485
-70.81,-17.398,5.1,6.997675171749436,4.4,0.03589601360249485
-70.474,-25.315,4.5,6.997675171749436,4.4,0.03589601360249485
-73.095,-37.698,4.8,6.997675171749436,4.4,0.03589601360249485
-71.497,-18.27,4.8,6.997675171749436,4.4,0.03589601360249485
-69.616,-21.535,4.6,6.997675171749436,4.4,0.03589601360249485
-71.735,-31.65,4.9,6.997675171749436,4.4,0.03589601360249485
-69.429,-25.563,4.8,6.997675171749436,4.4,0.03589601360249485
-70.717,-28.773,4.7,6.997675171749436,4.4,0.03589601360249485
-71.907,-32.094,4.9,6.997675171749436,4.4,0.03589601360249485
-71.72,-30.376,5.2,6.997675171749436,4.4,0.03589601360249485
-73.0,-37.549,4.4,6.997675171749436,4.4,0.03589601360249485
-69.623,-19.912,4.4,6.997675171749436,4.4,0.03589601360249485
-71.701,-32.487,4.8,6.997675171749436,4.4,0.03589601360249485
-69.65,-19.758,4.4,6.997675171749436,4.4,0.03589601360249485
-70.518,-18.62,4.4,6.997675171749436,4.4,0.03589601360249485
-69.926,-21.308,4.4,6.997675171749436,4.4,0.03589601360249485
-69.735,-17.617,4.6,6.997675171749436,4.4,0.03589601360249485
-69.788,-20.59,4.6,6.997675171749436,4.4,0.03589601360249485
-71.846,-32.229,4.7,6.997675171749436,4.4,0.03589601360249485
-71.769,-31.42,5.3,6.997675171749436,4.4,0.03589601360249485
-71.063,-17.072,4.4,6.997675171749436,4.4,0.03589601360249485
-71.008,-18.41,4.8,6.997675171749436,4.4,0.03589601360249485
-71.337,-32.337,4.6,6.997675171749436,4.4,0.03589601360249485
-71.828,-30.339,4.4,6.997675171749436,4.4,0.03589601360249485
-72.08,-34.35,5.9,6.997675171749436,4.4,0.03589601360249485
-72.948,-35.503,5.4,6.997675171749436,4.4,0.03589601360249485
-71.687,-31.474,4.8,6.997675171749436,4.4,0.03589601360249485
-70.578,-23.15,4.9,6.997675171749436,4.4,0.03589601360249485
-71.834,-32.089,4.6,6.997675171749436,4.4,0.03589601360249485
-65.985,-19.691,4.4,6.997675171749436,4.4,0.03589601360249485
-70.83,-20.92,5.2,6.997675171749436,4.4,0.03589601360249485
-73.488,-35.834,4.6,6.997675171749436,4.4,0.03589601360249485
-69.468,-21.419,4.8,6.997675171749436,4.4,0.03589601360249485
-70.67,-18.545,4.7,6.997675171749436,4.4,0.03589601360249485
-70.105,-19.257,4.4,6.997675171749436,4.4,0.03589601360249485
-69.353,-25.813,5.1,6.997675171749436,4.4,0.03589601360249485
-73.65,-38.06,5.1,6.997675171749436,4.4,0.03589601360249485
-71.681,-30.349,4.4,6.997675171749436,4.4,0.03589601360249485
-71.02,-27.96,5.3,6.997675171749436,4.4,0.03589601360249485
-71.49,-28.644,4.4,6.997675171749436,4.4,0.03589601360249485
-70.926,-17.374,4.5,6.997675171749436,4.4,0.03589601360249485
-69.82,-17.44,5.0,6.997675171749436,4.4,0.03589601360249485
-69.527,-26.22,5.2,6.997675171749436,4.4,0.03589601360249485
-70.923,-27.463,5.0,6.997675171749436,4.4,0.03589601360249485
-71.078,-26.709,4.4,6.997675171749436,4.4,0.03589601360249485
-70.611,-31.734,4.5,6.997675171749436,4.4,0.03589601360249485
-69.983,-19.513,4.5,6.997675171749436,4.4,0.03589601360249485
-71.133,-29.839,4.4,6.997675171749436,4.4,0.03589601360249485
-71.828,-32.243,4.9,6.997675171749436,4.4,0.03589601360249485
-73.525,-38.326,4.5,6.997675171749436,4.4,0.03589601360249485
-71.393,-17.516,4.8,6.997675171749436,4.4,0.03589601360249485
-70.932,-25.879,5.2,6.997675171749436,4.4,0.03589601360249485
-70.826,-25.049,4.8,6.997675171749436,4.4,0.03589601360249485
-70.677,-17.738,5.0,6.997675171749436,4.4,0.03589601360249485
-70.02,-17.24,5.4,6.997675171749436,4.4,0.03589601360249485
-72.405,-40.072,4.4,6.997675171749436,4.4,0.03589601360249485
-69.685,-21.524,4.7,6.997675171749436,4.4,0.03589601360249485
-69.77,-17.595,4.9,6.997675171749436,4.4,0.03589601360249485
-70.689,-40.176,4.8,6.997675171749436,4.4,0.03589601360249485
-71.807,-30.037,4.8,6.997675171749436,4.4,0.03589601360249485
-70.438,-17.039,5.0,6.997675171749436,4.4,0.03589601360249485
-70.999,-27.142,4.7,6.997675171749436,4.4,0.03589601360249485
-70.24,-19.33,4.8,6.997675171749436,4.4,0.03589601360249485
-71.111,-27.465,4.7,6.997675171749436,4.4,0.03589601360249485
-72.042,-31.653,4.8,6.997675171749436,4.4,0.03589601360249485
-72.733,-37.01,4.8,6.997675171749436,4.4,0.03589601360249485
-73.66,-38.02,5.2,6.997675171749436,4.4,0.03589601360249485
-71.433,-29.558,4.4,6.997675171749436,4.4,0.03589601360249485
-71.979,-32.033,4.4,6.997675171749436,4.4,0.03589601360249485
-69.686,-17.528,5.1,6.997675171749436,4.4,0.03589601360249485
-71.446,-18.459,4.6,6.997675171749436,4.4,0.03589601360249485
-69.492,-21.266,4.6,6.997675171749436,4.4,0.03589601360249485
-71.871,-31.545,4.4,6.997675171749436,4.4,0.03589601360249485
-71.319,-29.57,4.7,6.997675171749436,4.4,0.03589601360249485
-65.934,-20.009,4.4,6.997675171749436,4.4,0.03589601360249485
-72.416,-33.986,5.3,6.997675171749436,4.4,0.03589601360249485
-72.087,-32.443,4.8,6.997675171749436,4.4,0.03589601360249485
-69.825,-23.783,4.8,6.997675171749436,4.4,0.03589601360249485
-71.611,-36.758,5.0,6.997675171749436,4.4,0.03589601360249485
-69.855,-19.214,4.4,6.997675171749436,4.4,0.03589601360249485
-70.076,-25.108,4.8,6.997675171749436,4.4,0.03589601360249485
-70.488,-23.965,4.4,6.997675171749436,4.4,0.03589601360249485
-70.216,-17.559,5.1,6.997675171749436,4.4,0.03589601360249485
-73.463,-37.584,4.7,6.997675171749436,4.4,0.03589601360249485
-71.043,-30.473,5.0,6.997675171749436,4.4,0.03589601360249485
-68.836,-23.164,4.8,6.997675171749436,4.4,0.03589601360249485
-72.153,-40.055,6.9,49.99863107460644,6.8,1.2619492392475657
-68.0,-21.0,7.2,49.99863107460644,6.8,1.2619492392475657
-72.686,-44.861,7.0,49.99863107460644,6.8,1.2619492392475657
-69.107,-19.753,7.2,49.99863107460644,6.8,1.2619492392475657
-69.905,-34.25,6.0,25.99863107460644,6.0,0.3846356360572872
-72.026,-40.8,6.1,25.99863107460644,6.0,0.3846356360572872
-68.0,-20.0,6.0,25.99863107460644,6.0,0.3846356360572872
-69.958,-33.832,6.8,25.99863107460644,6.0,0.3846356360572872
-74.058,-46.215,6.1,25.99863107460644,6.0,0.3846356360572872
-72.889,-45.785,7.7,25.99863107460644,6.0,0.3846356360572872
-67.9,-22.9,6.3,25.99863107460644,6.0,0.3846356360572872
-68.0,-20.0,6.0,25.99863107460644,6.0,0.3846356360572872
-72.958,-45.847,6.2,25.99863107460644,6.0,0.3846356360572872
-67.613,-25.974,6.0,25.99863107460644,6.0,0.3846356360572872
-69.44,-27.04,5.6,10.001368925393566,5.3,0.1994989215829135
-68.283,-24.772,5.6,10.001368925393566,5.3,0.1994989215829135
-68.76,-20.443,6.7,10.001368925393566,5.3,0.1994989215829135
-68.478,-21.305,6.1,10.001368925393566,5.3,0.1994989215829135
-68.364,-22.031,5.4,10.001368925393566,5.3,0.1994989215829135
-69.627,-27.161,5.6,10.001368925393566,5.3,0.1994989215829135
-69.375,-31.612,5.3,10.001368925393566,5.3,0.1994989215829135
-67.624,-26.448,5.4,10.001368925393566,5.3,0.1994989215829135
-69.084,-32.032,5.9,10.001368925393566,5.3,0.1994989215829135
-68.858,-29.917,5.4,10.001368925393566,5.3,0.1994989215829135
-68.291,-21.861,5.7,10.001368925393566,5.3,0.1994989215829135
-68.482,-19.541,5.3,10.001368925393566,5.3,0.1994989215829135
-70.158,-34.287,5.5,10.001368925393566,5.3,0.1994989215829135
-68.387,-21.022,5.6,10.001368925393566,5.3,0.1994989215829135
-69.24,-17.856,5.6,10.001368925393566,5.3,0.1994989215829135
-66.845,-23.275,5.4,10.001368925393566,5.3,0.1994989215829135
-69.42,-33.27,5.6,10.001368925393566,5.3,0.1994989215829135
-70.713,-39.226,5.4,10.001368925393566,5.3,0.1994989215829135
-68.655,-21.39,5.7,10.001368925393566,5.3,0.1994989215829135
-69.76,-17.111,5.3,10.001368925393566,5.3,0.1994989215829135
-68.337,-21.486,5.8,10.001368925393566,5.3,0.1994989215829135
-68.546,-28.505,5.3,10.001368925393566,5.3,0.1994989215829135
-68.035,-23.907,5.4,10.001368925393566,5.3,0.1994989215829135
-67.8,-20.53,6.0,10.001368925393566,5.3,0.1994989215829135
-72.308,-40.948,5.4,10.001368925393566,5.3,0.1994989215829135
-67.544,-26.402,5.3,10.001368925393566,5.3,0.1994989215829135
-69.689,-33.124,5.4,10.001368925393566,5.3,0.1994989215829135
-71.411,-39.354,5.3,10.001368925393566,5.3,0.1994989215829135
-70.525,-35.127,5.3,10.001368925393566,5.3,0.1994989215829135
-70.145,-33.223,5.4,10.001368925393566,5.3,0.1994989215829135
-70.129,-34.065,5.4,10.001368925393566,5.3,0.1994989215829135
-68.991,-30.747,5.4,11.000684462696784,5.2,0.144072234580991
-68.46,-19.131,5.2,11.000684462696784,5.2,0.144072234580991
-70.0,-34.59,5.9,11.000684462696784,5.2,0.144072234580991
-69.477,-27.67,5.2,11.000684462696784,5.2,0.144072234580991
-70.209,-33.899,5.3,11.000684462696784,5.2,0.144072234580991
-71.473,-38.531,5.4,11.000684462696784,5.2,0.144072234580991
-71.83,-39.26,5.2,11.000684462696784,5.2,0.144072234580991
-70.258,-34.299,5.3,11.000684462696784,5.2,0.144072234580991
-70.371,-32.468,5.3,11.000684462696784,5.2,0.144072234580991
-68.872,-30.258,5.6,11.000684462696784,5.2,0.144072234580991
-72.815,-45.884,5.9,11.000684462696784,5.2,0.144072234580991
-68.418,-19.18,5.2,11.000684462696784,5.2,0.144072234580991
-70.105,-31.177,5.4,11.000684462696784,5.2,0.144072234580991
-70.046,-34.082,5.5,11.000684462696784,5.2,0.144072234580991
-71.037,-41.625,5.3,11.000684462696784,5.2,0.144072234580991
-70.525,-33.741,5.2,11.000684462696784,5.2,0.144072234580991
-68.45,-18.97,5.3,11.000684462696784,5.2,0.144072234580991
-69.953,-33.782,5.3,11.000684462696784,5.2,0.144072234580991
-71.45,-42.34,5.3,11.000684462696784,5.2,0.144072234580991
-72.81,-42.36,5.2,11.000684462696784,5.2,0.144072234580991
-72.678,-45.754,5.0,4.999315537303217,5.0,0.2000273822562979
-69.266,-26.021,5.4,4.999315537303217,5.0,0.2000273822562979
-70.865,-35.747,5.2,4.999315537303217,5.0,0.2000273822562979
-69.048,-31.965,5.5,4.999315537303217,5.0,0.2000273822562979
-72.532,-45.865,5.3,4.999315537303217,5.0,0.2000273822562979
-68.029,-23.771,5.0,4.999315537303217,5.0,0.2000273822562979
-68.511,-20.864,5.0,4.999315537303217,5.0,0.2000273822562979
-69.373,-17.432,5.1,4.999315537303217,5.0,0.2000273822562979
-69.646,-34.687,5.3,4.999315537303217,5.0,0.2000273822562979
-70.25,-34.75,5.9,4.999315537303217,5.0,0.2000273822562979
-68.804,-21.119,5.0,4.999315537303217,5.0,0.2000273822562979
-71.85,-40.32,5.4,4.999315537303217,5.0,0.2000273822562979
-69.05,-29.51,5.2,4.999315537303217,5.0,0.2000273822562979
-72.277,-45.786,5.2,4.999315537303217,5.0,0.2000273822562979
-73.002,-45.85,5.2,4.999315537303217,5.0,0.2000273822562979
-71.643,-40.434,4.7,5.9986310746064335,4.7,0.08355026795178516
-71.207,-36.417,5.3,5.9986310746064335,4.7,0.08355026795178516
-67.665,-21.912,4.9,5.9986310746064335,4.7,0.08355026795178516
-68.811,-23.878,4.7,5.9986310746064335,4.7,0.08355026795178516
-69.558,-34.821,5.2,5.9986310746064335,4.7,0.08355026795178516
-70.839,-37.393,5.2,5.9986310746064335,4.7,0.08355026795178516
-69.159,-18.186,4.7,5.9986310746064335,4.7,0.08355026795178516
-69.18,-19.44,6.3,5.9986310746064335,4.7,0.08355026795178516
-69.295,-26.31,5.0,5.9986310746064335,4.7,0.08355026795178516
-69.727,-33.345,4.8,5.9986310746064335,4.7,0.08355026795178516
-71.4,-36.275,4.8,5.9986310746064335,4.7,0.08355026795178516
-72.654,-45.743,5.2,5.9986310746064335,4.7,0.08355026795178516
-68.6,-19.22,5.6,5.9986310746064335,4.7,0.08355026795178516
-68.178,-22.606,4.7,5.9986310746064335,4.7,0.08355026795178516
-67.076,-24.205,4.8,5.9986310746064335,4.7,0.08355026795178516
-69.268,-31.618,4.7,5.9986310746064335,4.7,0.08355026795178516
-68.809,-26.176,4.9,5.9986310746064335,4.7,0.08355026795178516
-67.306,-21.24,5.0,5.9986310746064335,4.7,0.08355026795178516
-68.087,-20.969,4.8,5.9986310746064335,4.7,0.08355026795178516
-69.175,-30.618,5.2,5.9986310746064335,4.7,0.08355026795178516
-72.143,-40.546,4.8,5.9986310746064335,4.7,0.08355026795178516
-69.495,-31.791,4.8,5.9986310746064335,4.7,0.08355026795178516
-69.051,-25.099,4.9,5.9986310746064335,4.7,0.08355026795178516
-71.391,-41.49,4.8,5.9986310746064335,4.7,0.08355026795178516
-71.781,-41.154,4.8,5.9986310746064335,4.7,0.08355026795178516
-69.451,-31.811,4.9,5.9986310746064335,4.7,0.08355026795178516
-70.36,-35.21,6.5,5.9986310746064335,4.7,0.08355026795178516
-70.15,-34.31,5.3,5.9986310746064335,4.7,0.08355026795178516
-70.121,-33.379,4.8,5.9986310746064335,4.7,0.08355026795178516
-67.22,-24.438,4.8,5.9986310746064335,4.7,0.08355026795178516
-69.14,-32.93,4.8,5.9986310746064335,4.7,0.08355026795178516
-68.648,-23.004,5.0,5.9986310746064335,4.7,0.08355026795178516
-68.482,-23.839,4.7,5.9986310746064335,4.7,0.08355026795178516
-70.393,-32.823,4.7,5.9986310746064335,4.7,0.08355026795178516
-67.055,-24.322,5.2,5.9986310746064335,4.7,0.08355026795178516
-69.418,-30.819,5.1,5.9986310746064335,4.7,0.08355026795178516
-72.262,-40.465,4.9,5.9986310746064335,4.7,0.08355026795178516
-68.701,-26.195,4.9,5.9986310746064335,4.7,0.08355026795178516
-71.4,-38.04,5.5,5.9986310746064335,4.7,0.08355026795178516
-73.69,-45.39,5.2,3.0006844626967832,4.7,0.16702430390726392
-72.327,-45.194,5.2,3.0006844626967832,4.7,0.16702430390726392
-68.641,-19.827,5.1,3.0006844626967832,4.7,0.16702430390726392
-70.054,-34.163,5.0,3.0006844626967832,4.7,0.16702430390726392
-67.85,-23.208,4.8,3.0006844626967832,4.7,0.16702430390726392
-72.95,-45.48,6.24,3.0006844626967832,4.7,0.16702430390726392
-68.713,-21.384,4.7,3.0006844626967832,4.7,0.16702430390726392
-71.913,-40.439,4.8,3.0006844626967832,4.7,0.16702430390726392
-68.71,-19.46,5.1,3.0006844626967832,4.7,0.16702430390726392
-68.995,-20.132,5.0,3.0006844626967832,4.7,0.16702430390726392
-72.267,-45.797,5.0,3.0006844626967832,4.7,0.16702430390726392
-70.562,-35.17,4.7,3.0006844626967832,4.7,0.16702430390726392
-71.774,-40.26,5.0,3.0006844626967832,4.7,0.16702430390726392
-72.65,-42.93,5.2,3.0006844626967832,4.7,0.16702430390726392
-72.508,-42.054,5.5,3.0006844626967832,4.7,0.16702430390726392
-68.633,-22.224,4.8,3.0006844626967832,4.7,0.16702430390726392
-68.214,-21.694,5.2,3.0006844626967832,4.7,0.16702430390726392
-68.812,-20.572,4.9,3.0006844626967832,4.7,0.16702430390726392
-69.279,-18.542,4.9,3.0006844626967832,4.7,0.16702430390726392
-72.439,-43.548,5.3,3.0006844626967832,4.7,0.16702430390726392
-68.788,-28.459,4.8,3.0006844626967832,4.7,0.16702430390726392
-72.41,-42.82,5.1,3.0006844626967832,4.7,0.16702430390726392
-69.129,-32.695,4.8,3.0006844626967832,4.7,0.16702430390726392
-69.223,-19.076,4.9,3.0006844626967832,4.7,0.16702430390726392
-69.394,-31.172,5.2,3.0006844626967832,4.7,0.16702430390726392
-69.211,-31.68,6.1,3.0006844626967832,4.7,0.16702430390726392
-71.837,-37.701,5.3,3.0006844626967832,4.7,0.16702430390726392
-70.048,-31.231,5.2,3.0006844626967832,4.7,0.16702430390726392
-70.492,-33.751,4.7,3.0006844626967832,4.7,0.16702430390726392
-71.47,-39.86,5.1,3.0006844626967832,4.7,0.16702430390726392
-69.148,-30.358,5.4,3.0006844626967832,4.7,0.16702430390726392
-69.919,-35.869,5.4,3.0006844626967832,4.7,0.16702430390726392
-70.216,-34.994,5.1,3.0006844626967832,4.7,0.16702430390726392
-70.915,-35.596,5.0,3.0006844626967832,4.7,0.16702430390726392
-69.708,-34.137,5.3,3.0006844626967832,4.7,0.16702430390726392
-72.507,-43.999,5.4,3.0006844626967832,4.7,0.16702430390726392
-73.03,-44.36,5.4,3.0006844626967832,4.7,0.16702430390726392
-69.192,-32.402,5.1,3.0006844626967832,4.7,0.16702430390726392
-71.502,-38.291,5.0,3.0006844626967832,4.7,0.16702430390726392
-72.108,-40.39,5.0,3.0006844626967832,4.7,0.16702430390726392
-71.337,-36.975,5.6,3.0006844626967832,4.7,0.16702430390726392
-68.493,-20.299,4.9,3.0006844626967832,4.7,0.16702430390726392
-70.491,-35.322,5.3,3.0006844626967832,4.7,0.16702430390726392
-70.39,-34.91,5.0,3.0006844626967832,4.7,0.16702430390726392
-72.55,-46.02,5.0,3.0006844626967832,4.7,0.16702430390726392
-69.229,-30.232,4.9,3.0006844626967832,4.7,0.16702430390726392
-68.61,-24.301,4.7,3.0006844626967832,4.7,0.16702430390726392
-72.177,-40.444,5.3,3.0006844626967832,4.7,0.16702430390726392
-69.23,-26.542,5.4,3.0006844626967832,4.7,0.16702430390726392
-72.779,-45.878,5.2,3.0006844626967832,4.7,0.16702430390726392
-69.111,-31.865,4.9,3.0006844626967832,4.7,0.16702430390726392
-70.97,-36.23,6.0,3.0006844626967832,4.7,0.16702430390726392
-69.175,-32.835,4.7,3.0006844626967832,4.7,0.16702430390726392
-69.262,-31.893,4.8,3.0006844626967832,4.7,0.16702430390726392
-69.262,-32.901,4.0,,,
-69.46,-29.896,4.8,,,
-69.567,-27.873,4.9,,,
-69.4,-26.2,5.3,,,
-69.258,-30.51,5.0,,,
-69.582,-17.386,4.1,,,
-67.403,-22.922,4.1,,,
-69.225,-31.905,4.2,,,
-69.156,-19.821,4.1,,,
-69.54,-26.771,5.2,,,
-69.526,-30.202,4.6,,,
-66.912,-23.256,4.2,,,
-67.861,-26.213,4.2,,,
-67.47,-26.042,4.7,,,
-69.638,-31.836,4.0,,,
-71.202,-36.71,4.4,,,
-70.564,-36.838,4.1,,,
-70.341,-33.998,4.1,,,
-67.913,-25.144,4.0,,,
-69.411,-30.239,4.4,1.998631074606434,4.4,0.12568034508340753
-68.74,-29.31,5.7,1.998631074606434,4.4,0.12568034508340753
-69.323,-18.561,4.5,1.998631074606434,4.4,0.12568034508340753
-69.639,-33.237,4.4,1.998631074606434,4.4,0.12568034508340753
-69.794,-33.297,4.5,1.998631074606434,4.4,0.12568034508340753
-67.222,-24.189,5.0,1.998631074606434,4.4,0.12568034508340753
-70.22,-34.302,4.4,1.998631074606434,4.4,0.12568034508340753
-73.51,-44.79,5.0,1.998631074606434,4.4,0.12568034508340753
-69.459,-30.328,4.9,1.998631074606434,4.4,0.12568034508340753
-70.019,-29.777,4.5,1.998631074606434,4.4,0.12568034508340753
-69.203,-25.843,4.4,1.998631074606434,4.4,0.12568034508340753
-68.701,-17.861,4.5,1.998631074606434,4.4,0.12568034508340753
-67.298,-22.538,5.0,1.998631074606434,4.4,0.12568034508340753
-70.477,-32.984,4.6,1.998631074606434,4.4,0.12568034508340753
-69.425,-30.578,4.6,1.998631074606434,4.4,0.12568034508340753
-70.066,-31.484,4.8,1.998631074606434,4.4,0.12568034508340753
-69.085,-18.408,5.2,1.998631074606434,4.4,0.12568034508340753
-67.955,-22.213,4.4,1.998631074606434,4.4,0.12568034508340753
-68.91,-22.27,4.4,1.998631074606434,4.4,0.12568034508340753
-68.37,-25.14,4.4,1.998631074606434,4.4,0.12568034508340753
-70.666,-35.084,4.4,1.998631074606434,4.4,0.12568034508340753
-69.275,-32.946,4.9,6.997675171749436,4.4,0.03589601360249485
-70.329,-34.604,4.5,6.997675171749436,4.4,0.03589601360249485
-67.18,-22.42,5.1,6.997675171749436,4.4,0.03589601360249485
-68.95,-30.528,5.1,6.997675171749436,4.4,0.03589601360249485
-69.51,-33.07,5.4,6.997675171749436,4.4,0.03589601360249485
-69.379,-30.559,4.6,6.997675171749436,4.4,0.03589601360249485
-69.519,-31.624,4.6,6.997675171749436,4.4,0.03589601360249485
-72.148,-42.301,4.9,6.997675171749436,4.4,0.03589601360249485
-71.66,-42.09,5.2,6.997675171749436,4.4,0.03589601360249485
-70.627,-35.204,4.4,6.997675171749436,4.4,0.03589601360249485
-69.055,-30.136,4.4,6.997675171749436,4.4,0.03589601360249485
-70.069,-33.433,4.9,6.997675171749436,4.4,0.03589601360249485
-69.604,-33.181,4.5,6.997675171749436,4.4,0.03589601360249485
-69.15,-18.36,5.0,6.997675171749436,4.4,0.03589601360249485
-69.006,-31.976,4.8,6.997675171749436,4.4,0.03589601360249485
-67.983,-26.306,5.1,6.997675171749436,4.4,0.03589601360249485
-69.222,-33.359,4.6,6.997675171749436,4.4,0.03589601360249485
-66.92,-24.42,5.3,6.997675171749436,4.4,0.03589601360249485
-70.492,-33.993,5.3,6.997675171749436,4.4,0.03589601360249485
-71.07,-36.444,4.4,6.997675171749436,4.4,0.03589601360249485
-68.467,-24.402,4.9,6.997675171749436,4.4,0.03589601360249485
-69.639,-27.74,4.7,6.997675171749436,4.4,0.03589601360249485
-69.77,-33.356,4.6,6.997675171749436,4.4,0.03589601360249485
-68.78,-21.06,4.7,6.997675171749436,4.4,0.03589601360249485
-70.54,-36.612,4.8,6.997675171749436,4.4,0.03589601360249485
-69.799,-32.792,4.5,6.997675171749436,4.4,0.03589601360249485
-69.0,-30.244,5.2,6.997675171749436,4.4,0.03589601360249485
-68.947,-29.132,4.5,6.997675171749436,4.4,0.03589601360249485
-71.449,-37.575,4.4,6.997675171749436,4.4,0.03589601360249485
-70.14,-33.2,4.9,6.997675171749436,4.4,0.03589601360249485
-69.031,-31.833,6.3,6.997675171749436,4.4,0.03589601360249485
-71.96,-39.87,5.0,6.997675171749436,4.4,0.03589601360249485
-72.936,-45.891,4.7,6.997675171749436,4.4,0.03589601360249485
-67.602,-26.771,4.9,6.997675171749436,4.4,0.03589601360249485
-67.559,-22.149,4.7,6.997675171749436,4.4,0.03589601360249485
-69.15,-32.873,4.6,6.997675171749436,4.4,0.03589601360249485
-68.801,-18.677,5.4,6.997675171749436,4.4,0.03589601360249485
-71.661,-44.232,5.6,6.997675171749436,4.4,0.03589601360249485
-69.265,-17.92,5.0,6.997675171749436,4.4,0.03589601360249485
-69.008,-26.583,5.0,6.997675171749436,4.4,0.03589601360249485
-68.775,-29.936,4.8,6.997675171749436,4.4,0.03589601360249485
-67.488,-22.4,4.4,6.997675171749436,4.4,0.03589601360249485
-68.491,-22.756,4.9,6.997675171749436,4.4,0.03589601360249485
-71.381,-36.859,4.4,6.997675171749436,4.4,0.03589601360249485
-68.693,-29.579,4.8,6.997675171749436,4.4,0.03589601360249485
-67.573,-22.192,4.9,6.997675171749436,4.4,0.03589601360249485
-69.11,-28.11,5.1,6.997675171749436,4.4,0.03589601360249485
-70.02,-32.729,4.4,6.997675171749436,4.4,0.03589601360249485
-68.171,-26.629,5.2,6.997675171749436,4.4,0.03589601360249485
-71.712,-42.245,4.4,6.997675171749436,4.4,0.03589601360249485
-68.64,-23.171,4.4,6.997675171749436,4.4,0.03589601360249485
